{"n_features": 18, "n_classes": 2, "classes": [0, 1], "n_estimators": null, "trees": [{"nodeid": 0, "depth": 0, "split": "f3", "split_condition": 100, "yes": 1, "no": 2, "missing": 2, "children": [{"nodeid": 1, "leaf": -0.700493693}, {"nodeid": 2, "depth": 1, "split": "f9", "split_condition": 92, "yes": 3, "no": 4, "missing": 4, "children": [{"nodeid": 3, "leaf": -0.695075333}, {"nodeid": 4, "depth": 2, "split": "f8", "split_condition": 1, "yes": 5, "no": 6, "missing": 6, "children": [{"nodeid": 5, "leaf": -0.550615907}, {"nodeid": 6, "leaf": 0.524677098}]}]}]}, {"nodeid": 0, "depth": 0, "split": "f3", "split_condition": 100, "yes": 1, "no": 2, "missing": 2, "children": [{"nodeid": 1, "leaf": -0.498771638}, {"nodeid": 2, "depth": 1, "split": "f9", "split_condition": 92, "yes": 3, "no": 4, "missing": 4, "children": [{"nodeid": 3, "leaf": -0.495907396}, {"nodeid": 4, "depth": 2, "split": "f8", "split_condition": 1, "yes": 5, "no": 6, "missing": 6, "children": [{"nodeid": 5, "leaf": -0.417654961}, {"nodeid": 6, "leaf": 0.432943791}]}]}]}, {"nodeid": 0, "depth": 0, "split": "f3", "split_condition": 100, "yes": 1, "no": 2, "missing": 2, "children": [{"nodeid": 1, "leaf": -0.420697957}, {"nodeid": 2, "depth": 1, "split": "f9", "split_condition": 92, "yes": 3, "no": 4, "missing": 4, "children": [{"nodeid": 3, "leaf": -0.417818218}, {"nodeid": 4, "depth": 2, "split": "f8", "split_condition": 1, "yes": 5, "no": 6, "missing": 6, "children": [{"nodeid": 5, "leaf": -0.348135948}, {"nodeid": 6, "leaf": 0.386217296}]}]}]}, {"nodeid": 0, "depth": 0, "split": "f3", "split_condition": 100, "yes": 1, "no": 2, "missing": 2, "children": [{"nodeid": 1, "leaf": -0.379235446}, {"nodeid": 2, "depth": 1, "split": "f9", "split_condition": 92, "yes": 3, "no": 4, "missing": 4, "children": [{"nodeid": 3, "leaf": -0.375814557}, {"nodeid": 4, "depth": 2, "split": "f8", "split_condition": 1, "yes": 5, "no": 6, "missing": 6, "children": [{"nodeid": 5, "leaf": -0.303236425}, {"nodeid": 6, "leaf": 0.35858351}]}]}]}, {"nodeid": 0, "depth": 0, "split": "f3", "split_condition": 100, "yes": 1, "no": 2, "missing": 2, "children": [{"nodeid": 1, "leaf": -0.354210913}, {"nodeid": 2, "depth": 1, "split": "f9", "split_condition": 92, "yes": 3, "no": 4, "missing": 4, "children": [{"nodeid": 3, "leaf": -0.349910259}, {"nodeid": 4, "depth": 2, "split": "f8", "split_condition": 1, "yes": 5, "no": 6, "missing": 6, "children": [{"nodeid": 5, "leaf": -0.270309687}, {"nodeid": 6, "leaf": 0.340915501}]}]}]}, {"nodeid": 0, "depth": 0, "split": "f3", "split_condition": 100, "yes": 1, "no": 2, "missing": 2, "children": [{"nodeid": 1, "leaf": -0.338020355}, {"nodeid": 2, "depth": 1, "split": "f9", "split_condition": 92, "yes": 3, "no": 4, "missing": 4, "children": [{"nodeid": 3, "leaf": -0.332488328}, {"nodeid": 4, "depth": 2, "split": "f8", "split_condition": 1, "yes": 5, "no": 6, "missing": 6, "children": [{"nodeid": 5, "leaf": -0.244035944}, {"nodeid": 6, "leaf": 0.329076916}]}]}]}, {"nodeid": 0, "depth": 0, "split": "f3", "split_condition": 100, "yes": 1, "no": 2, "missing": 2, "children": [{"nodeid": 1, "leaf": -0.327088505}, {"nodeid": 2, "depth": 1, "split": "f8", "split_condition": 1, "yes": 3, "no": 4, "missing": 4, "children": [{"nodeid": 3, "leaf": -0.320719779}, {"nodeid": 4, "depth": 2, "split": "f9", "split_condition": 64, "yes": 5, "no": 6, "missing": 6, "children": [{"nodeid": 5, "leaf": -0.213355526}, {"nodeid": 6, "leaf": 0.320898771}]}]}]}, {"nodeid": 0, "depth": 0, "split": "f3", "split_condition": 100, "yes": 1, "no": 2, "missing": 2, "children": [{"nodeid": 1, "leaf": -0.319496274}, {"nodeid": 2, "depth": 1, "split": "f9", "split_condition": 92, "yes": 3, "no": 4, "missing": 4, "children": [{"nodeid": 3, "leaf": -0.310248494}, {"nodeid": 4, "depth": 2, "split": "f8", "split_condition": 1, "yes": 5, "no": 6, "missing": 6, "children": [{"nodeid": 5, "leaf": -0.194153652}, {"nodeid": 6, "leaf": 0.315129757}]}]}]}, {"nodeid": 0, "depth": 0, "split": "f3", "split_condition": 100, "yes": 1, "no": 2, "missing": 2, "children": [{"nodeid": 1, "leaf": -0.314118207}, {"nodeid": 2, "depth": 1, "split": "f8", "split_condition": 1, "yes": 3, "no": 4, "missing": 4, "children": [{"nodeid": 3, "leaf": -0.302561283}, {"nodeid": 4, "depth": 2, "split": "f9", "split_condition": 64, "yes": 5, "no": 6, "missing": 6, "children": [{"nodeid": 5, "leaf": -0.171618685}, {"nodeid": 6, "leaf": 0.310997367}]}]}]}, {"nodeid": 0, "depth": 0, "split": "f3", "split_condition": 100, "yes": 1, "no": 2, "missing": 2, "children": [{"nodeid": 1, "leaf": -0.310251296}, {"nodeid": 2, "depth": 1, "split": "f9", "split_condition": 92, "yes": 3, "no": 4, "missing": 4, "children": [{"nodeid": 3, "leaf": -0.294600219}, {"nodeid": 4, "leaf": 0.307764232}]}]}, {"nodeid": 0, "depth": 0, "split": "f3", "split_condition": 100, "yes": 1, "no": 2, "missing": 2, "children": [{"nodeid": 1, "leaf": -0.307435572}, {"nodeid": 2, "depth": 1, "split": "f8", "split_condition": 1, "yes": 3, "no": 4, "missing": 4, "children": [{"nodeid": 3, "leaf": -0.289156377}, {"nodeid": 4, "depth": 2, "split": "f9", "split_condition": 105, "yes": 5, "no": 6, "missing": 6, "children": [{"nodeid": 5, "leaf": -0.0356818363}, {"nodeid": 6, "leaf": 0.305805713}]}]}]}, {"nodeid": 0, "depth": 0, "split": "f3", "split_condition": 100, "yes": 1, "no": 2, "missing": 2, "children": [{"nodeid": 1, "leaf": -0.305359006}, {"nodeid": 2, "depth": 1, "split": "f8", "split_condition": 1, "yes": 3, "no": 4, "missing": 4, "children": [{"nodeid": 3, "leaf": -0.28097412}, {"nodeid": 4, "depth": 2, "split": "f9", "split_condition": 105, "yes": 5, "no": 6, "missing": 6, "children": [{"nodeid": 5, "leaf": -0.0297647603}, {"nodeid": 6, "leaf": 0.304174572}]}]}]}, {"nodeid": 0, "depth": 0, "split": "f3", "split_condition": 100, "yes": 1, "no": 2, "missing": 2, "children": [{"nodeid": 1, "leaf": -0.303803414}, {"nodeid": 2, "depth": 1, "split": "f8", "split_condition": 1, "yes": 3, "no": 4, "missing": 4, "children": [{"nodeid": 3, "leaf": -0.272096425}, {"nodeid": 4, "depth": 2, "split": "f9", "split_condition": 105, "yes": 5, "no": 6, "missing": 6, "children": [{"nodeid": 5, "leaf": -0.0248125587}, {"nodeid": 6, "leaf": 0.302943617}]}]}]}, {"nodeid": 0, "depth": 0, "split": "f3", "split_condition": 100, "yes": 1, "no": 2, "missing": 2, "children": [{"nodeid": 1, "leaf": -0.302611947}, {"nodeid": 2, "depth": 1, "split": "f9", "split_condition": 92, "yes": 3, "no": 4, "missing": 4, "children": [{"nodeid": 3, "leaf": -0.262949646}, {"nodeid": 4, "leaf": 0.301528186}]}]}, {"nodeid": 0, "depth": 0, "split": "f3", "split_condition": 100, "yes": 1, "no": 2, "missing": 2, "children": [{"nodeid": 1, "leaf": -0.301668108}, {"nodeid": 2, "depth": 1, "split": "f8", "split_condition": 1, "yes": 3, "no": 4, "missing": 4, "children": [{"nodeid": 3, "leaf": -0.254973739}, {"nodeid": 4, "depth": 2, "split": "f9", "split_condition": 108, "yes": 5, "no": 6, "missing": 6, "children": [{"nodeid": 5, "leaf": 0.00441879546}, {"nodeid": 6, "leaf": 0.301227689}]}]}]}, {"nodeid": 0, "depth": 0, "split": "f3", "split_condition": 100, "yes": 1, "no": 2, "missing": 2, "children": [{"nodeid": 1, "leaf": -0.300881952}, {"nodeid": 2, "depth": 1, "split": "f8", "split_condition": 1, "yes": 3, "no": 4, "missing": 4, "children": [{"nodeid": 3, "leaf": -0.242942303}, {"nodeid": 4, "depth": 2, "split": "f9", "split_condition": 108, "yes": 5, "no": 6, "missing": 6, "children": [{"nodeid": 5, "leaf": 0.00371193327}, {"nodeid": 6, "leaf": 0.300578177}]}]}]}, {"nodeid": 0, "depth": 0, "split": "f3", "split_condition": 100, "yes": 1, "no": 2, "missing": 2, "children": [{"nodeid": 1, "leaf": -0.300180227}, {"nodeid": 2, "depth": 1, "split": "f9", "split_condition": 92, "yes": 3, "no": 4, "missing": 4, "children": [{"nodeid": 3, "leaf": -0.231244564}, {"nodeid": 4, "leaf": 0.299050838}]}]}, {"nodeid": 0, "depth": 0, "split": "f3", "split_condition": 100, "yes": 1, "no": 2, "missing": 2, "children": [{"nodeid": 1, "leaf": -0.299498767}, {"nodeid": 2, "depth": 1, "split": "f8", "split_condition": 1, "yes": 3, "no": 4, "missing": 4, "children": [{"nodeid": 3, "leaf": -0.223094553}, {"nodeid": 4, "depth": 2, "split": "f9", "split_condition": 119, "yes": 5, "no": 6, "missing": 6, "children": [{"nodeid": 5, "leaf": 0.0336678475}, {"nodeid": 6, "leaf": 0.299392223}]}]}]}, {"nodeid": 0, "depth": 0, "split": "f3", "split_condition": 100, "yes": 1, "no": 2, "missing": 2, "children": [{"nodeid": 1, "leaf": -0.298776478}, {"nodeid": 2, "depth": 1, "split": "f8", "split_condition": 1, "yes": 3, "no": 4, "missing": 4, "children": [{"nodeid": 3, "leaf": -0.208973303}, {"nodeid": 4, "depth": 2, "split": "f9", "split_condition": 119, "yes": 5, "no": 6, "missing": 6, "children": [{"nodeid": 5, "leaf": 0.0284154136}, {"nodeid": 6, "leaf": 0.298748225}]}]}]}, {"nodeid": 0, "depth": 0, "split": "f3", "split_condition": 100, "yes": 1, "no": 2, "missing": 2, "children": [{"nodeid": 1, "leaf": -0.297950298}, {"nodeid": 2, "depth": 1, "split": "f9", "split_condition": 92, "yes": 3, "no": 4, "missing": 4, "children": [{"nodeid": 3, "leaf": -0.19667162}, {"nodeid": 4, "leaf": 0.296016246}]}]}, {"nodeid": 0, "depth": 0, "split": "f3", "split_condition": 100, "yes": 1, "no": 2, "missing": 2, "children": [{"nodeid": 1, "leaf": -0.296949923}, {"nodeid": 2, "depth": 1, "split": "f8", "split_condition": 1, "yes": 3, "no": 4, "missing": 4, "children": [{"nodeid": 3, "leaf": -0.191227883}, {"nodeid": 4, "depth": 2, "split": "f9", "split_condition": 129, "yes": 5, "no": 6, "missing": 6, "children": [{"nodeid": 5, "leaf": 0.032769639}, {"nodeid": 6, "leaf": 0.297076434}]}]}]}, {"nodeid": 0, "depth": 0, "split": "f3", "split_condition": 100, "yes": 1, "no": 2, "missing": 2, "children": [{"nodeid": 1, "leaf": -0.295693338}, {"nodeid": 2, "depth": 1, "split": "f8", "split_condition": 1, "yes": 3, "no": 4, "missing": 4, "children": [{"nodeid": 3, "leaf": -0.177275836}, {"nodeid": 4, "depth": 2, "split": "f9", "split_condition": 129, "yes": 5, "no": 6, "missing": 6, "children": [{"nodeid": 5, "leaf": 0.0279466379}, {"nodeid": 6, "leaf": 0.295906454}]}]}]}, {"nodeid": 0, "depth": 0, "split": "f3", "split_condition": 100, "yes": 1, "no": 2, "missing": 2, "children": [{"nodeid": 1, "leaf": -0.294082016}, {"nodeid": 2, "depth": 1, "split": "f9", "split_condition": 92, "yes": 3, "no": 4, "missing": 4, "children": [{"nodeid": 3, "leaf": -0.165302724}, {"nodeid": 4, "depth": 2, "split": "f9", "split_condition": 173, "yes": 5, "no": 6, "missing": 6, "children": [{"nodeid": 5, "leaf": 0.0906810462}, {"nodeid": 6, "leaf": 0.294033736}]}]}]}, {"nodeid": 0, "depth": 0, "split": "f3", "split_condition": 100, "yes": 1, "no": 2, "missing": 2, "children": [{"nodeid": 1, "leaf": -0.291996926}, {"nodeid": 2, "depth": 1, "split": "f8", "split_condition": 1, "yes": 3, "no": 4, "missing": 4, "children": [{"nodeid": 3, "leaf": -0.159168616}, {"nodeid": 4, "depth": 2, "split": "f9", "split_condition": 151, "yes": 5, "no": 6, "missing": 6, "children": [{"nodeid": 5, "leaf": 0.0549793728}, {"nodeid": 6, "leaf": 0.292414725}]}]}]}, {"nodeid": 0, "depth": 0, "split": "f3", "split_condition": 100, "yes": 1, "no": 2, "missing": 2, "children": [{"nodeid": 1, "leaf": -0.289296031}, {"nodeid": 2, "depth": 1, "split": "f9", "split_condition": 108, "yes": 3, "no": 4, "missing": 4, "children": [{"nodeid": 3, "leaf": -0.102507405}, {"nodeid": 4, "depth": 2, "split": "f9", "split_condition": 191, "yes": 5, "no": 6, "missing": 6, "children": [{"nodeid": 5, "leaf": 0.0786487535}, {"nodeid": 6, "leaf": 0.289117187}]}]}]}, {"nodeid": 0, "depth": 0, "split": "f3", "split_condition": 100, "yes": 1, "no": 2, "missing": 2, "children": [{"nodeid": 1, "leaf": -0.285814404}, {"nodeid": 2, "depth": 1, "split": "f9", "split_condition": 124, "yes": 3, "no": 4, "missing": 4, "children": [{"nodeid": 3, "leaf": -0.0685592666}, {"nodeid": 4, "leaf": 0.280928016}]}]}, {"nodeid": 0, "depth": 0, "split": "f3", "split_condition": 100, "yes": 1, "no": 2, "missing": 2, "children": [{"nodeid": 1, "leaf": -0.281369478}, {"nodeid": 2, "depth": 1, "split": "f9", "split_condition": 173, "yes": 3, "no": 4, "missing": 4, "children": [{"nodeid": 3, "depth": 2, "split": "f9", "split_condition": 105, "yes": 5, "no": 6, "missing": 6, "children": [{"nodeid": 5, "leaf": -0.0879836902}, {"nodeid": 6, "leaf": 0.029307818}]}, {"nodeid": 4, "leaf": 0.280577958}]}]}, {"nodeid": 0, "depth": 0, "split": "f3", "split_condition": 100, "yes": 1, "no": 2, "missing": 2, "children": [{"nodeid": 1, "leaf": -0.275774002}, {"nodeid": 2, "depth": 1, "split": "f9", "split_condition": 173, "yes": 3, "no": 4, "missing": 4, "children": [{"nodeid": 3, "leaf": -0.0341008417}, {"nodeid": 4, "leaf": 0.274102598}]}]}, {"nodeid": 0, "depth": 0, "split": "f3", "split_condition": 100, "yes": 1, "no": 2, "missing": 2, "children": [{"nodeid": 1, "leaf": -0.268858343}, {"nodeid": 2, "depth": 1, "split": "f14", "split_condition": 1, "yes": 3, "no": 4, "missing": 4, "children": [{"nodeid": 3, "leaf": -0.0898507237}, {"nodeid": 4, "leaf": 0.254866153}]}]}, {"nodeid": 0, "depth": 0, "split": "f17", "split_condition": 4, "yes": 1, "no": 2, "missing": 2, "children": [{"nodeid": 1, "depth": 1, "split": "f3", "split_condition": 100, "yes": 3, "no": 4, "missing": 4, "children": [{"nodeid": 3, "leaf": -0.260060459}, {"nodeid": 4, "leaf": -0.0192748234}]}, {"nodeid": 2, "leaf": 0.24434185}]}, {"nodeid": 0, "depth": 0, "split": "f9", "split_condition": 277, "yes": 1, "no": 2, "missing": 2, "children": [{"nodeid": 1, "depth": 1, "split": "f3", "split_condition": 100, "yes": 3, "no": 4, "missing": 4, "children": [{"nodeid": 3, "leaf": -0.249537319}, {"nodeid": 4, "leaf": -0.0252820197}]}, {"nodeid": 2, "leaf": 0.228197679}]}, {"nodeid": 0, "depth": 0, "split": "f17", "split_condition": 3, "yes": 1, "no": 2, "missing": 2, "children": [{"nodeid": 1, "depth": 1, "split": "f3", "split_condition": 100, "yes": 3, "no": 4, "missing": 4, "children": [{"nodeid": 3, "leaf": -0.239095807}, {"nodeid": 4, "leaf": -0.0321647264}]}, {"nodeid": 2, "depth": 1, "split": "f16", "split_condition": 5, "yes": 5, "no": 6, "missing": 6, "children": [{"nodeid": 5, "leaf": 0.0451143011}, {"nodeid": 6, "leaf": 0.230963543}]}]}, {"nodeid": 0, "depth": 0, "split": "f16", "split_condition": 4, "yes": 1, "no": 2, "missing": 2, "children": [{"nodeid": 1, "depth": 1, "split": "f3", "split_condition": 100, "yes": 3, "no": 4, "missing": 4, "children": [{"nodeid": 3, "leaf": -0.224237084}, {"nodeid": 4, "leaf": -0.0425292999}]}, {"nodeid": 2, "depth": 1, "split": "f17", "split_condition": 15, "yes": 5, "no": 6, "missing": 6, "children": [{"nodeid": 5, "leaf": 0.0557473414}, {"nodeid": 6, "leaf": 0.220235422}]}]}, {"nodeid": 0, "depth": 0, "split": "f3", "split_condition": 100, "yes": 1, "no": 2, "missing": 2, "children": [{"nodeid": 1, "leaf": -0.218827188}, {"nodeid": 2, "depth": 1, "split": "f9", "split_condition": 173, "yes": 3, "no": 4, "missing": 4, "children": [{"nodeid": 3, "leaf": -0.051222384}, {"nodeid": 4, "leaf": 0.210929781}]}]}, {"nodeid": 0, "depth": 0, "split": "f16", "split_condition": 4, "yes": 1, "no": 2, "missing": 2, "children": [{"nodeid": 1, "depth": 1, "split": "f9", "split_condition": 95, "yes": 3, "no": 4, "missing": 4, "children": [{"nodeid": 3, "leaf": -0.202123195}, {"nodeid": 4, "leaf": -0.0247547496}]}, {"nodeid": 2, "leaf": 0.172718734}]}, {"nodeid": 0, "depth": 0, "split": "f3", "split_condition": 100, "yes": 1, "no": 2, "missing": 2, "children": [{"nodeid": 1, "leaf": -0.197729573}, {"nodeid": 2, "depth": 1, "split": "f16", "split_condition": 4, "yes": 3, "no": 4, "missing": 4, "children": [{"nodeid": 3, "leaf": -0.026830893}, {"nodeid": 4, "leaf": 0.195185453}]}]}, {"nodeid": 0, "depth": 0, "split": "f17", "split_condition": 2, "yes": 1, "no": 2, "missing": 2, "children": [{"nodeid": 1, "depth": 1, "split": "f9", "split_condition": 95, "yes": 3, "no": 4, "missing": 4, "children": [{"nodeid": 3, "leaf": -0.176392257}, {"nodeid": 4, "leaf": -0.0376834273}]}, {"nodeid": 2, "depth": 1, "split": "f9", "split_condition": 505, "yes": 5, "no": 6, "missing": 6, "children": [{"nodeid": 5, "leaf": 0.0304831807}, {"nodeid": 6, "leaf": 0.171348721}]}]}, {"nodeid": 0, "depth": 0, "split": "f8", "split_condition": 1, "yes": 1, "no": 2, "missing": 2, "children": [{"nodeid": 1, "leaf": -0.181460515}, {"nodeid": 2, "depth": 1, "split": "f7", "split_condition": 2, "yes": 3, "no": 4, "missing": 4, "children": [{"nodeid": 3, "leaf": 0.178440422}, {"nodeid": 4, "leaf": -0.0556643456}]}]}, {"nodeid": 0, "depth": 0, "split": "f3", "split_condition": 100, "yes": 1, "no": 2, "missing": 2, "children": [{"nodeid": 1, "leaf": -0.168265924}, {"nodeid": 2, "depth": 1, "split": "f9", "split_condition": 173, "yes": 3, "no": 4, "missing": 4, "children": [{"nodeid": 3, "leaf": -0.0287769455}, {"nodeid": 4, "leaf": 0.153212994}]}]}, {"nodeid": 0, "depth": 0, "split": "f8", "split_condition": 1, "yes": 1, "no": 2, "missing": 2, "children": [{"nodeid": 1, "leaf": -0.163547665}, {"nodeid": 2, "depth": 1, "split": "f17", "split_condition": 3, "yes": 3, "no": 4, "missing": 4, "children": [{"nodeid": 3, "leaf": -0.0383371674}, {"nodeid": 4, "leaf": 0.159695625}]}]}, {"nodeid": 0, "depth": 0, "split": "f3", "split_condition": 100, "yes": 1, "no": 2, "missing": 2, "children": [{"nodeid": 1, "leaf": -0.150201827}, {"nodeid": 2, "depth": 1, "split": "f16", "split_condition": 4, "yes": 3, "no": 4, "missing": 4, "children": [{"nodeid": 3, "leaf": -0.0173145682}, {"nodeid": 4, "leaf": 0.144208342}]}]}, {"nodeid": 0, "depth": 0, "split": "f14", "split_condition": 1, "yes": 1, "no": 2, "missing": 2, "children": [{"nodeid": 1, "leaf": -0.12002714}, {"nodeid": 2, "leaf": 0.0719182268}]}, {"nodeid": 0, "depth": 0, "split": "f17", "split_condition": 2, "yes": 1, "no": 2, "missing": 2, "children": [{"nodeid": 1, "leaf": -0.0942847654}, {"nodeid": 2, "leaf": 0.0817881301}]}, {"nodeid": 0, "depth": 0, "split": "f16", "split_condition": 4, "yes": 1, "no": 2, "missing": 2, "children": [{"nodeid": 1, "leaf": -0.0739165321}, {"nodeid": 2, "leaf": 0.0861698985}]}, {"nodeid": 0, "depth": 0, "split": "f17", "split_condition": 4, "yes": 1, "no": 2, "missing": 2, "children": [{"nodeid": 1, "leaf": -0.068996869}, {"nodeid": 2, "leaf": 0.0767943412}]}, {"nodeid": 0, "depth": 0, "split": "f10", "split_condition": 77.7777786, "yes": 1, "no": 2, "missing": 2, "children": [{"nodeid": 1, "leaf": -0.0775017142}, {"nodeid": 2, "leaf": 0.0592016391}]}, {"nodeid": 0, "depth": 0, "split": "f9", "split_condition": 203, "yes": 1, "no": 2, "missing": 2, "children": [{"nodeid": 1, "leaf": -0.063804172}, {"nodeid": 2, "leaf": 0.0684829056}]}, {"nodeid": 0, "depth": 0, "split": "f16", "split_condition": 2, "yes": 1, "no": 2, "missing": 2, "children": [{"nodeid": 1, "leaf": -0.0653145239}, {"nodeid": 2, "leaf": 0.0529826544}]}, {"nodeid": 0, "depth": 0, "split": "f10", "split_condition": 89.4736862, "yes": 1, "no": 2, "missing": 2, "children": [{"nodeid": 1, "leaf": -0.0627571419}, {"nodeid": 2, "leaf": 0.0477180891}]}, {"nodeid": 0, "depth": 0, "split": "f9", "split_condition": 163, "yes": 1, "no": 2, "missing": 2, "children": [{"nodeid": 1, "leaf": -0.0528294221}, {"nodeid": 2, "leaf": 0.0501419418}]}, {"nodeid": 0, "depth": 0, "split": "f17", "split_condition": 2, "yes": 1, "no": 2, "missing": 2, "children": [{"nodeid": 1, "leaf": -0.049202539}, {"nodeid": 2, "leaf": 0.0458804742}]}, {"nodeid": 0, "depth": 0, "split": "f9", "split_condition": 163, "yes": 1, "no": 2, "missing": 2, "children": [{"nodeid": 1, "leaf": -0.0413823463}, {"nodeid": 2, "leaf": 0.0397473313}]}, {"nodeid": 0, "depth": 0, "split": "f17", "split_condition": 2, "yes": 1, "no": 2, "missing": 2, "children": [{"nodeid": 1, "leaf": -0.03873064}, {"nodeid": 2, "leaf": 0.0367799997}]}, {"nodeid": 0, "depth": 0, "split": "f9", "split_condition": 151, "yes": 1, "no": 2, "missing": 2, "children": [{"nodeid": 1, "leaf": -0.033632163}, {"nodeid": 2, "leaf": 0.0309815947}]}, {"nodeid": 0, "depth": 0, "split": "f17", "split_condition": 2, "yes": 1, "no": 2, "missing": 2, "children": [{"nodeid": 1, "leaf": -0.0306720063}, {"nodeid": 2, "leaf": 0.0291487873}]}, {"nodeid": 0, "depth": 0, "split": "f9", "split_condition": 163, "yes": 1, "no": 2, "missing": 2, "children": [{"nodeid": 1, "leaf": -0.0258670915}, {"nodeid": 2, "leaf": 0.02561309}]}, {"nodeid": 0, "depth": 0, "split": "f17", "split_condition": 2, "yes": 1, "no": 2, "missing": 2, "children": [{"nodeid": 1, "leaf": -0.0241550338}, {"nodeid": 2, "leaf": 0.023306964}]}, {"nodeid": 0, "depth": 0, "split": "f14", "split_condition": 2, "yes": 1, "no": 2, "missing": 2, "children": [{"nodeid": 1, "leaf": -0.0214334689}, {"nodeid": 2, "leaf": 0.0207425244}]}, {"nodeid": 0, "depth": 0, "split": "f17", "split_condition": 2, "yes": 1, "no": 2, "missing": 2, "children": [{"nodeid": 1, "leaf": -0.0190741029}, {"nodeid": 2, "leaf": 0.0186140053}]}, {"nodeid": 0, "depth": 0, "split": "f9", "split_condition": 163, "yes": 1, "no": 2, "missing": 2, "children": [{"nodeid": 1, "leaf": -0.0175524633}, {"nodeid": 2, "leaf": 0.0182620604}]}, {"nodeid": 0, "depth": 0, "split": "f14", "split_condition": 2, "yes": 1, "no": 2, "missing": 2, "children": [{"nodeid": 1, "leaf": -0.015442255}, {"nodeid": 2, "leaf": 0.0147631317}]}, {"nodeid": 0, "depth": 0, "split": "f9", "split_condition": 151, "yes": 1, "no": 2, "missing": 2, "children": [{"nodeid": 1, "leaf": -0.0143967578}, {"nodeid": 2, "leaf": 0.0140551701}]}, {"nodeid": 0, "depth": 0, "split": "f17", "split_condition": 2, "yes": 1, "no": 2, "missing": 2, "children": [{"nodeid": 1, "leaf": -0.0132376142}, {"nodeid": 2, "leaf": 0.012855147}]}, {"nodeid": 0, "depth": 0, "split": "f0", "split_condition": 26, "yes": 1, "no": 2, "missing": 2, "children": [{"nodeid": 1, "leaf": 0.0111362729}, {"nodeid": 2, "leaf": -0.0121939573}]}, {"nodeid": 0, "depth": 0, "split": "f9", "split_condition": 151, "yes": 1, "no": 2, "missing": 2, "children": [{"nodeid": 1, "leaf": -0.0116109066}, {"nodeid": 2, "leaf": 0.0109977601}]}, {"nodeid": 0, "depth": 0, "split": "f17", "split_condition": 2, "yes": 1, "no": 2, "missing": 2, "children": [{"nodeid": 1, "leaf": -0.0104371607}, {"nodeid": 2, "leaf": 0.0105327321}]}, {"nodeid": 0, "depth": 0, "split": "f14", "split_condition": 2, "yes": 1, "no": 2, "missing": 2, "children": [{"nodeid": 1, "leaf": -0.00973584782}, {"nodeid": 2, "leaf": 0.00935814064}]}, {"nodeid": 0, "depth": 0, "split": "f9", "split_condition": 151, "yes": 1, "no": 2, "missing": 2, "children": [{"nodeid": 1, "leaf": -0.00850593951}, {"nodeid": 2, "leaf": 0.0082855951}]}, {"nodeid": 0, "depth": 0, "split": "f17", "split_condition": 2, "yes": 1, "no": 2, "missing": 2, "children": [{"nodeid": 1, "leaf": -0.00774863455}, {"nodeid": 2, "leaf": 0.00762853632}]}, {"nodeid": 0, "depth": 0, "split": "f14", "split_condition": 2, "yes": 1, "no": 2, "missing": 2, "children": [{"nodeid": 1, "leaf": -0.00716528436}, {"nodeid": 2, "leaf": 0.00694670528}]}, {"nodeid": 0, "depth": 0, "split": "f1", "split_condition": 18, "yes": 1, "no": 2, "missing": 2, "children": [{"nodeid": 1, "leaf": -0.00693163136}, {"nodeid": 2, "leaf": 0.00702362554}]}, {"nodeid": 0, "depth": 0, "split": "f17", "split_condition": 2, "yes": 1, "no": 2, "missing": 2, "children": [{"nodeid": 1, "leaf": -0.0061918092}, {"nodeid": 2, "leaf": 0.00634085201}]}, {"nodeid": 0, "depth": 0, "split": "f1", "split_condition": 18, "yes": 1, "no": 2, "missing": 2, "children": [{"nodeid": 1, "leaf": -0.00592056056}, {"nodeid": 2, "leaf": 0.00601018034}]}, {"nodeid": 0, "depth": 0, "split": "f14", "split_condition": 2, "yes": 1, "no": 2, "missing": 2, "children": [{"nodeid": 1, "leaf": -0.0059553762}, {"nodeid": 2, "leaf": 0.00596746989}]}, {"nodeid": 0, "depth": 0, "split": "f9", "split_condition": 163, "yes": 1, "no": 2, "missing": 2, "children": [{"nodeid": 1, "leaf": -0.00519528985}, {"nodeid": 2, "leaf": 0.00534679927}]}, {"nodeid": 0, "depth": 0, "split": "f1", "split_condition": 18, "yes": 1, "no": 2, "missing": 2, "children": [{"nodeid": 1, "leaf": -0.00532733276}, {"nodeid": 2, "leaf": 0.00514567923}]}, {"nodeid": 0, "depth": 0, "split": "f0", "split_condition": 25, "yes": 1, "no": 2, "missing": 2, "children": [{"nodeid": 1, "leaf": 0.00852516573}, {"nodeid": 2, "leaf": -0.00783720147}]}, {"nodeid": 0, "depth": 0, "split": "f1", "split_condition": 18, "yes": 1, "no": 2, "missing": 2, "children": [{"nodeid": 1, "leaf": -0.00558467163}, {"nodeid": 2, "leaf": 0.00552990753}]}, {"nodeid": 0, "depth": 0, "split": "f1", "split_condition": 18, "yes": 1, "no": 2, "missing": 2, "children": [{"nodeid": 1, "leaf": -0.00475677568}, {"nodeid": 2, "leaf": 0.00471660402}]}, {"nodeid": 0, "depth": 0, "split": "f0", "split_condition": 25, "yes": 1, "no": 2, "missing": 2, "children": [{"nodeid": 1, "leaf": 0.00875379611}, {"nodeid": 2, "leaf": -0.00800855085}]}, {"nodeid": 0, "depth": 0, "split": "f1", "split_condition": 18, "yes": 1, "no": 2, "missing": 2, "children": [{"nodeid": 1, "leaf": -0.00510438578}, {"nodeid": 2, "leaf": 0.00519032218}]}, {"nodeid": 0, "depth": 0, "split": "f17", "split_condition": 2, "yes": 1, "no": 2, "missing": 2, "children": [{"nodeid": 1, "leaf": -0.00458227098}, {"nodeid": 2, "leaf": 0.0047088624}]}, {"nodeid": 0, "depth": 0, "split": "f1", "split_condition": 18, "yes": 1, "no": 2, "missing": 2, "children": [{"nodeid": 1, "leaf": -0.00437080162}, {"nodeid": 2, "leaf": 0.0044924207}]}, {"nodeid": 0, "depth": 0, "split": "f0", "split_condition": 25, "yes": 1, "no": 2, "missing": 2, "children": [{"nodeid": 1, "leaf": 0.00854135863}, {"nodeid": 2, "leaf": -0.00803075265}]}, {"nodeid": 0, "depth": 0, "split": "f1", "split_condition": 18, "yes": 1, "no": 2, "missing": 2, "children": [{"nodeid": 1, "leaf": -0.00477080606}, {"nodeid": 2, "leaf": 0.00503827492}]}, {"nodeid": 0, "depth": 0, "split": "f0", "split_condition": 25, "yes": 1, "no": 2, "missing": 2, "children": [{"nodeid": 1, "leaf": 0.00800568983}, {"nodeid": 2, "leaf": -0.00735178497}]}, {"nodeid": 0, "depth": 0, "split": "f1", "split_condition": 18, "yes": 1, "no": 2, "missing": 2, "children": [{"nodeid": 1, "leaf": -0.00505238678}, {"nodeid": 2, "leaf": 0.0053351121}]}, {"nodeid": 0, "depth": 0, "split": "f14", "split_condition": 2, "yes": 1, "no": 2, "missing": 2, "children": [{"nodeid": 1, "leaf": -0.00435328344}, {"nodeid": 2, "leaf": 0.00448953686}]}, {"nodeid": 0, "depth": 0, "split": "f1", "split_condition": 18, "yes": 1, "no": 2, "missing": 2, "children": [{"nodeid": 1, "leaf": -0.00438116118}, {"nodeid": 2, "leaf": 0.00455885753}]}, {"nodeid": 0, "depth": 0, "split": "f0", "split_condition": 25, "yes": 1, "no": 2, "missing": 2, "children": [{"nodeid": 1, "leaf": 0.00810676906}, {"nodeid": 2, "leaf": -0.00747550745}]}, {"nodeid": 0, "depth": 0, "split": "f1", "split_condition": 18, "yes": 1, "no": 2, "missing": 2, "children": [{"nodeid": 1, "leaf": -0.00476387888}, {"nodeid": 2, "leaf": 0.00506124459}]}, {"nodeid": 0, "depth": 0, "split": "f1", "split_condition": 18, "yes": 1, "no": 2, "missing": 2, "children": [{"nodeid": 1, "leaf": -0.00402931636}, {"nodeid": 2, "leaf": 0.0042086821}]}, {"nodeid": 0, "depth": 0, "split": "f0", "split_condition": 25, "yes": 1, "no": 2, "missing": 2, "children": [{"nodeid": 1, "leaf": 0.00816557184}, {"nodeid": 2, "leaf": -0.00750081288}]}, {"nodeid": 0, "depth": 0, "split": "f1", "split_condition": 18, "yes": 1, "no": 2, "missing": 2, "children": [{"nodeid": 1, "leaf": -0.00447729789}, {"nodeid": 2, "leaf": 0.00477088336}]}, {"nodeid": 0, "depth": 0, "split": "f0", "split_condition": 25, "yes": 1, "no": 2, "missing": 2, "children": [{"nodeid": 1, "leaf": 0.00764197577}, {"nodeid": 2, "leaf": -0.00699682534}]}, {"nodeid": 0, "depth": 0, "split": "f1", "split_condition": 18, "yes": 1, "no": 2, "missing": 2, "children": [{"nodeid": 1, "leaf": -0.00474969344}, {"nodeid": 2, "leaf": 0.00507227052}]}, {"nodeid": 0, "depth": 0, "split": "f1", "split_condition": 18, "yes": 1, "no": 2, "missing": 2, "children": [{"nodeid": 1, "leaf": -0.00407132506}, {"nodeid": 2, "leaf": 0.00422127824}]}, {"nodeid": 0, "depth": 0, "split": "f0", "split_condition": 25, "yes": 1, "no": 2, "missing": 2, "children": [{"nodeid": 1, "leaf": 0.00778228324}, {"nodeid": 2, "leaf": -0.0071079554}]}, {"nodeid": 0, "depth": 0, "split": "f1", "split_condition": 18, "yes": 1, "no": 2, "missing": 2, "children": [{"nodeid": 1, "leaf": -0.00442105485}, {"nodeid": 2, "leaf": 0.00472865207}]}, {"nodeid": 0, "depth": 0, "split": "f9", "split_condition": 163, "yes": 1, "no": 2, "missing": 2, "children": [{"nodeid": 1, "leaf": -0.00388744124}, {"nodeid": 2, "leaf": 0.00432110578}]}]}