{"n_features": 17, "n_classes": 2, "classes": [0, 1], "n_estimators": null, "trees": [{"nodeid": 0, "depth": 0, "split": "f7", "split_condition": 1, "yes": 1, "no": 2, "missing": 2, "children": [{"nodeid": 1, "depth": 1, "split": "f12", "split_condition": 0, "yes": 3, "no": 4, "missing": 4, "children": [{"nodeid": 3, "leaf": -0.680985689}, {"nodeid": 4, "depth": 2, "split": "f13", "split_condition": 0, "yes": 7, "no": 8, "missing": 8, "children": [{"nodeid": 7, "depth": 3, "split": "f5", "split_condition": 1, "yes": 13, "no": 14, "missing": 14, "children": [{"nodeid": 13, "leaf": -0.542332351}, {"nodeid": 14, "leaf": 0.421384752}]}, {"nodeid": 8, "depth": 3, "split": "f12", "split_condition": 1, "yes": 15, "no": 16, "missing": 16, "children": [{"nodeid": 15, "depth": 4, "split": "f1", "split_condition": 1, "yes": 23, "no": 24, "missing": 24, "children": [{"nodeid": 23, "depth": 5, "split": "f2", "split_condition": 1, "yes": 33, "no": 34, "missing": 34, "children": [{"nodeid": 33, "leaf": 0.326487064}, {"nodeid": 34, "leaf": -0.322025806}]}, {"nodeid": 24, "depth": 5, "split": "f6", "split_condition": 0, "yes": 35, "no": 36, "missing": 36, "children": [{"nodeid": 35, "leaf": 0.00507440371}, {"nodeid": 36, "leaf": 0.337024659}]}]}, {"nodeid": 16, "depth": 4, "split": "f7", "split_condition": 0, "yes": 25, "no": 26, "missing": 26, "children": [{"nodeid": 25, "depth": 5, "split": "f6", "split_condition": 0, "yes": 37, "no": 38, "missing": 38, "children": [{"nodeid": 37, "leaf": -0.0442446433}, {"nodeid": 38, "leaf": 0.471409887}]}, {"nodeid": 26, "leaf": -0.509847641}]}]}]}]}, {"nodeid": 2, "depth": 1, "split": "f12", "split_condition": 0, "yes": 5, "no": 6, "missing": 6, "children": [{"nodeid": 5, "depth": 2, "split": "f5", "split_condition": 1, "yes": 9, "no": 10, "missing": 10, "children": [{"nodeid": 9, "depth": 3, "split": "f13", "split_condition": 0, "yes": 17, "no": 18, "missing": 18, "children": [{"nodeid": 17, "leaf": -0.656437278}, {"nodeid": 18, "depth": 4, "split": "f11", "split_condition": 1, "yes": 27, "no": 28, "missing": 28, "children": [{"nodeid": 27, "leaf": -0.598531306}, {"nodeid": 28, "depth": 5, "split": "f2", "split_condition": 1, "yes": 39, "no": 40, "missing": 40, "children": [{"nodeid": 39, "leaf": -0.452643007}, {"nodeid": 40, "leaf": 0.177121401}]}]}]}, {"nodeid": 10, "leaf": 0.408016086}]}, {"nodeid": 6, "depth": 2, "split": "f13", "split_condition": 0, "yes": 11, "no": 12, "missing": 12, "children": [{"nodeid": 11, "depth": 3, "split": "f14", "split_condition": 0, "yes": 19, "no": 20, "missing": 20, "children": [{"nodeid": 19, "depth": 4, "split": "f12", "split_condition": 1, "yes": 29, "no": 30, "missing": 30, "children": [{"nodeid": 29, "depth": 5, "split": "f5", "split_condition": 1, "yes": 41, "no": 42, "missing": 42, "children": [{"nodeid": 41, "leaf": 0.0940174013}, {"nodeid": 42, "leaf": 0.509559095}]}, {"nodeid": 30, "leaf": 0.498679072}]}, {"nodeid": 20, "leaf": 0.509446025}]}, {"nodeid": 12, "depth": 3, "split": "f12", "split_condition": 1, "yes": 21, "no": 22, "missing": 22, "children": [{"nodeid": 21, "depth": 4, "split": "f14", "split_condition": 0, "yes": 31, "no": 32, "missing": 32, "children": [{"nodeid": 31, "depth": 5, "split": "f5", "split_condition": 1, "yes": 43, "no": 44, "missing": 44, "children": [{"nodeid": 43, "leaf": 0.403901547}, {"nodeid": 44, "leaf": 0.526128113}]}, {"nodeid": 32, "leaf": 0.509670377}]}, {"nodeid": 22, "leaf": 0.531374335}]}]}]}]}, {"nodeid": 0, "depth": 0, "split": "f7", "split_condition": 1, "yes": 1, "no": 2, "missing": 2, "children": [{"nodeid": 1, "depth": 1, "split": "f12", "split_condition": 0, "yes": 3, "no": 4, "missing": 4, "children": [{"nodeid": 3, "leaf": -0.492504925}, {"nodeid": 4, "depth": 2, "split": "f5", "split_condition": 1, "yes": 7, "no": 8, "missing": 8, "children": [{"nodeid": 7, "depth": 3, "split": "f13", "split_condition": 0, "yes": 13, "no": 14, "missing": 14, "children": [{"nodeid": 13, "depth": 4, "split": "f8", "split_condition": 1, "yes": 21, "no": 22, "missing": 22, "children": [{"nodeid": 21, "depth": 5, "split": "f1", "split_condition": 1, "yes": 33, "no": 34, "missing": 34, "children": [{"nodeid": 33, "leaf": -0.350815743}, {"nodeid": 34, "leaf": 0.161924183}]}, {"nodeid": 22, "depth": 5, "split": "f12", "split_condition": 1, "yes": 35, "no": 36, "missing": 36, "children": [{"nodeid": 35, "leaf": -0.375743032}, {"nodeid": 36, "leaf": -0.487861603}]}]}, {"nodeid": 14, "depth": 4, "split": "f6", "split_condition": 0, "yes": 23, "no": 24, "missing": 24, "children": [{"nodeid": 23, "depth": 5, "split": "f13", "split_condition": 1, "yes": 37, "no": 38, "missing": 38, "children": [{"nodeid": 37, "leaf": -0.361706883}, {"nodeid": 38, "leaf": 0.110166229}]}, {"nodeid": 24, "depth": 5, "split": "f11", "split_condition": 1, "yes": 39, "no": 40, "missing": 40, "children": [{"nodeid": 39, "leaf": -0.258092642}, {"nodeid": 40, "leaf": 0.0985348448}]}]}]}, {"nodeid": 8, "leaf": 0.454485148}]}]}, {"nodeid": 2, "depth": 1, "split": "f12", "split_condition": 0, "yes": 5, "no": 6, "missing": 6, "children": [{"nodeid": 5, "depth": 2, "split": "f5", "split_condition": 1, "yes": 9, "no": 10, "missing": 10, "children": [{"nodeid": 9, "depth": 3, "split": "f13", "split_condition": 0, "yes": 15, "no": 16, "missing": 16, "children": [{"nodeid": 15, "leaf": -0.478894591}, {"nodeid": 16, "depth": 4, "split": "f11", "split_condition": 1, "yes": 25, "no": 26, "missing": 26, "children": [{"nodeid": 25, "leaf": -0.446555495}, {"nodeid": 26, "depth": 5, "split": "f2", "split_condition": 1, "yes": 41, "no": 42, "missing": 42, "children": [{"nodeid": 41, "leaf": -0.360750735}, {"nodeid": 42, "leaf": 0.137146428}]}]}]}, {"nodeid": 10, "leaf": 0.34034723}]}, {"nodeid": 6, "depth": 2, "split": "f13", "split_condition": 0, "yes": 11, "no": 12, "missing": 12, "children": [{"nodeid": 11, "depth": 3, "split": "f6", "split_condition": 1, "yes": 17, "no": 18, "missing": 18, "children": [{"nodeid": 17, "depth": 4, "split": "f14", "split_condition": 0, "yes": 27, "no": 28, "missing": 28, "children": [{"nodeid": 27, "depth": 5, "split": "f5", "split_condition": 1, "yes": 43, "no": 44, "missing": 44, "children": [{"nodeid": 43, "leaf": 0.029123418}, {"nodeid": 44, "leaf": 0.41958499}]}, {"nodeid": 28, "leaf": 0.40836516}]}, {"nodeid": 18, "depth": 4, "split": "f12", "split_condition": 1, "yes": 29, "no": 30, "missing": 30, "children": [{"nodeid": 29, "depth": 5, "split": "f8", "split_condition": 1, "yes": 45, "no": 46, "missing": 46, "children": [{"nodeid": 45, "leaf": 0.444128007}, {"nodeid": 46, "leaf": 0.28618148}]}, {"nodeid": 30, "leaf": 0.425770938}]}]}, {"nodeid": 12, "depth": 3, "split": "f12", "split_condition": 1, "yes": 19, "no": 20, "missing": 20, "children": [{"nodeid": 19, "depth": 4, "split": "f14", "split_condition": 0, "yes": 31, "no": 32, "missing": 32, "children": [{"nodeid": 31, "depth": 5, "split": "f10", "split_condition": 1, "yes": 47, "no": 48, "missing": 48, "children": [{"nodeid": 47, "leaf": 0.437842846}, {"nodeid": 48, "leaf": 0.311539352}]}, {"nodeid": 32, "leaf": 0.412968427}]}, {"nodeid": 20, "leaf": 0.434164554}]}]}]}]}, {"nodeid": 0, "depth": 0, "split": "f7", "split_condition": 1, "yes": 1, "no": 2, "missing": 2, "children": [{"nodeid": 1, "depth": 1, "split": "f12", "split_condition": 0, "yes": 3, "no": 4, "missing": 4, "children": [{"nodeid": 3, "leaf": -0.41725871}, {"nodeid": 4, "depth": 2, "split": "f5", "split_condition": 1, "yes": 7, "no": 8, "missing": 8, "children": [{"nodeid": 7, "depth": 3, "split": "f13", "split_condition": 0, "yes": 13, "no": 14, "missing": 14, "children": [{"nodeid": 13, "depth": 4, "split": "f0", "split_condition": 1, "yes": 19, "no": 20, "missing": 20, "children": [{"nodeid": 19, "depth": 5, "split": "f11", "split_condition": 1, "yes": 29, "no": 30, "missing": 30, "children": [{"nodeid": 29, "leaf": -0.292991251}, {"nodeid": 30, "leaf": -0.418331057}]}, {"nodeid": 20, "depth": 5, "split": "f8", "split_condition": 1, "yes": 31, "no": 32, "missing": 32, "children": [{"nodeid": 31, "leaf": 0.00958693773}, {"nodeid": 32, "leaf": -0.282994688}]}]}, {"nodeid": 14, "depth": 4, "split": "f12", "split_condition": 1, "yes": 21, "no": 22, "missing": 22, "children": [{"nodeid": 21, "depth": 5, "split": "f1", "split_condition": 1, "yes": 33, "no": 34, "missing": 34, "children": [{"nodeid": 33, "leaf": -0.181729883}, {"nodeid": 34, "leaf": 0.163556099}]}, {"nodeid": 22, "depth": 5, "split": "f7", "split_condition": 0, "yes": 35, "no": 36, "missing": 36, "children": [{"nodeid": 35, "leaf": 0.226917192}, {"nodeid": 36, "leaf": -0.381803244}]}]}]}, {"nodeid": 8, "leaf": 0.39029187}]}]}, {"nodeid": 2, "depth": 1, "split": "f12", "split_condition": 0, "yes": 5, "no": 6, "missing": 6, "children": [{"nodeid": 5, "depth": 2, "split": "f5", "split_condition": 1, "yes": 9, "no": 10, "missing": 10, "children": [{"nodeid": 9, "depth": 3, "split": "f13", "split_condition": 0, "yes": 15, "no": 16, "missing": 16, "children": [{"nodeid": 15, "leaf": -0.40381968}, {"nodeid": 16, "depth": 4, "split": "f11", "split_condition": 1, "yes": 23, "no": 24, "missing": 24, "children": [{"nodeid": 23, "leaf": -0.374079168}, {"nodeid": 24, "depth": 5, "split": "f2", "split_condition": 1, "yes": 37, "no": 38, "missing": 38, "children": [{"nodeid": 37, "leaf": -0.304498196}, {"nodeid": 38, "leaf": 0.106767759}]}]}]}, {"nodeid": 10, "leaf": 0.296046585}]}, {"nodeid": 6, "depth": 2, "split": "f12", "split_condition": 1, "yes": 11, "no": 12, "missing": 12, "children": [{"nodeid": 11, "depth": 3, "split": "f13", "split_condition": 0, "yes": 17, "no": 18, "missing": 18, "children": [{"nodeid": 17, "depth": 4, "split": "f14", "split_condition": 0, "yes": 25, "no": 26, "missing": 26, "children": [{"nodeid": 25, "depth": 5, "split": "f2", "split_condition": 1, "yes": 39, "no": 40, "missing": 40, "children": [{"nodeid": 39, "leaf": 0.351540506}, {"nodeid": 40, "leaf": 0.0266574305}]}, {"nodeid": 26, "depth": 5, "split": "f4", "split_condition": 1, "yes": 41, "no": 42, "missing": 42, "children": [{"nodeid": 41, "leaf": 0.215922281}, {"nodeid": 42, "leaf": 0.388089985}]}]}, {"nodeid": 18, "depth": 4, "split": "f6", "split_condition": 1, "yes": 27, "no": 28, "missing": 28, "children": [{"nodeid": 27, "depth": 5, "split": "f14", "split_condition": 0, "yes": 43, "no": 44, "missing": 44, "children": [{"nodeid": 43, "leaf": 0.228487343}, {"nodeid": 44, "leaf": 0.353614867}]}, {"nodeid": 28, "depth": 5, "split": "f13", "split_condition": 1, "yes": 45, "no": 46, "missing": 46, "children": [{"nodeid": 45, "leaf": 0.367912948}, {"nodeid": 46, "leaf": 0.305998355}]}]}]}, {"nodeid": 12, "leaf": 0.382621318}]}]}]}, {"nodeid": 0, "depth": 0, "split": "f7", "split_condition": 1, "yes": 1, "no": 2, "missing": 2, "children": [{"nodeid": 1, "depth": 1, "split": "f12", "split_condition": 0, "yes": 3, "no": 4, "missing": 4, "children": [{"nodeid": 3, "leaf": -0.376803607}, {"nodeid": 4, "depth": 2, "split": "f5", "split_condition": 1, "yes": 7, "no": 8, "missing": 8, "children": [{"nodeid": 7, "depth": 3, "split": "f13", "split_condition": 0, "yes": 13, "no": 14, "missing": 14, "children": [{"nodeid": 13, "depth": 4, "split": "f0", "split_condition": 1, "yes": 19, "no": 20, "missing": 20, "children": [{"nodeid": 19, "depth": 5, "split": "f11", "split_condition": 1, "yes": 29, "no": 30, "missing": 30, "children": [{"nodeid": 29, "leaf": -0.236979291}, {"nodeid": 30, "leaf": -0.36266163}]}, {"nodeid": 20, "depth": 5, "split": "f6", "split_condition": 0, "yes": 31, "no": 32, "missing": 32, "children": [{"nodeid": 31, "leaf": -0.274921715}, {"nodeid": 32, "leaf": -0.145755306}]}]}, {"nodeid": 14, "depth": 4, "split": "f6", "split_condition": 0, "yes": 21, "no": 22, "missing": 22, "children": [{"nodeid": 21, "depth": 5, "split": "f13", "split_condition": 1, "yes": 33, "no": 34, "missing": 34, "children": [{"nodeid": 33, "leaf": -0.247751042}, {"nodeid": 34, "leaf": 0.0926959589}]}, {"nodeid": 22, "depth": 5, "split": "f7", "split_condition": 0, "yes": 35, "no": 36, "missing": 36, "children": [{"nodeid": 35, "leaf": 0.0510464683}, {"nodeid": 36, "leaf": -0.309710145}]}]}]}, {"nodeid": 8, "leaf": 0.350846469}]}]}, {"nodeid": 2, "depth": 1, "split": "f12", "split_condition": 0, "yes": 5, "no": 6, "missing": 6, "children": [{"nodeid": 5, "depth": 2, "split": "f5", "split_condition": 1, "yes": 9, "no": 10, "missing": 10, "children": [{"nodeid": 9, "depth": 3, "split": "f13", "split_condition": 0, "yes": 15, "no": 16, "missing": 16, "children": [{"nodeid": 15, "leaf": -0.36122945}, {"nodeid": 16, "depth": 4, "split": "f11", "split_condition": 1, "yes": 23, "no": 24, "missing": 24, "children": [{"nodeid": 23, "leaf": -0.329418987}, {"nodeid": 24, "depth": 5, "split": "f8", "split_condition": 1, "yes": 37, "no": 38, "missing": 38, "children": [{"nodeid": 37, "leaf": -0.181814671}, {"nodeid": 38, "leaf": 0.161264867}]}]}]}, {"nodeid": 10, "leaf": 0.263365149}]}, {"nodeid": 6, "depth": 2, "split": "f12", "split_condition": 1, "yes": 11, "no": 12, "missing": 12, "children": [{"nodeid": 11, "depth": 3, "split": "f14", "split_condition": 0, "yes": 17, "no": 18, "missing": 18, "children": [{"nodeid": 17, "depth": 4, "split": "f5", "split_condition": 1, "yes": 25, "no": 26, "missing": 26, "children": [{"nodeid": 25, "depth": 5, "split": "f13", "split_condition": 0, "yes": 39, "no": 40, "missing": 40, "children": [{"nodeid": 39, "leaf": 0.0123752272}, {"nodeid": 40, "leaf": 0.199462533}]}, {"nodeid": 26, "leaf": 0.37123841}]}, {"nodeid": 18, "depth": 4, "split": "f4", "split_condition": 1, "yes": 27, "no": 28, "missing": 28, "children": [{"nodeid": 27, "depth": 5, "split": "f1", "split_condition": 1, "yes": 41, "no": 42, "missing": 42, "children": [{"nodeid": 41, "leaf": 0.340900689}, {"nodeid": 42, "leaf": 0.0373958312}]}, {"nodeid": 28, "depth": 5, "split": "f13", "split_condition": 1, "yes": 43, "no": 44, "missing": 44, "children": [{"nodeid": 43, "leaf": 0.361461163}, {"nodeid": 44, "leaf": 0.284350485}]}]}]}, {"nodeid": 12, "leaf": 0.350654185}]}]}]}, {"nodeid": 0, "depth": 0, "split": "f7", "split_condition": 1, "yes": 1, "no": 2, "missing": 2, "children": [{"nodeid": 1, "depth": 1, "split": "f12", "split_condition": 0, "yes": 3, "no": 4, "missing": 4, "children": [{"nodeid": 3, "leaf": -0.352135032}, {"nodeid": 4, "depth": 2, "split": "f5", "split_condition": 1, "yes": 7, "no": 8, "missing": 8, "children": [{"nodeid": 7, "depth": 3, "split": "f13", "split_condition": 1, "yes": 13, "no": 14, "missing": 14, "children": [{"nodeid": 13, "depth": 4, "split": "f13", "split_condition": 0, "yes": 19, "no": 20, "missing": 20, "children": [{"nodeid": 19, "depth": 5, "split": "f4", "split_condition": 1, "yes": 31, "no": 32, "missing": 32, "children": [{"nodeid": 31, "leaf": -0.347859204}, {"nodeid": 32, "leaf": -0.186574087}]}, {"nodeid": 20, "depth": 5, "split": "f2", "split_condition": 1, "yes": 33, "no": 34, "missing": 34, "children": [{"nodeid": 33, "leaf": 0.306845367}, {"nodeid": 34, "leaf": -0.111578092}]}]}, {"nodeid": 14, "depth": 4, "split": "f10", "split_condition": 1, "yes": 21, "no": 22, "missing": 22, "children": [{"nodeid": 21, "leaf": -0.341157377}, {"nodeid": 22, "depth": 5, "split": "f7", "split_condition": 0, "yes": 35, "no": 36, "missing": 36, "children": [{"nodeid": 35, "leaf": 0.191668138}, {"nodeid": 36, "leaf": -0.292886674}]}]}]}, {"nodeid": 8, "leaf": 0.323108673}]}]}, {"nodeid": 2, "depth": 1, "split": "f12", "split_condition": 0, "yes": 5, "no": 6, "missing": 6, "children": [{"nodeid": 5, "depth": 2, "split": "f5", "split_condition": 1, "yes": 9, "no": 10, "missing": 10, "children": [{"nodeid": 9, "depth": 3, "split": "f16", "split_condition": 1, "yes": 15, "no": 16, "missing": 16, "children": [{"nodeid": 15, "depth": 4, "split": "f13", "split_condition": 1, "yes": 23, "no": 24, "missing": 24, "children": [{"nodeid": 23, "leaf": -0.302633643}, {"nodeid": 24, "leaf": 0.17250827}]}, {"nodeid": 16, "depth": 4, "split": "f13", "split_condition": 0, "yes": 25, "no": 26, "missing": 26, "children": [{"nodeid": 25, "leaf": -0.331960678}, {"nodeid": 26, "depth": 5, "split": "f13", "split_condition": 1, "yes": 37, "no": 38, "missing": 38, "children": [{"nodeid": 37, "leaf": -0.075974375}, {"nodeid": 38, "leaf": -0.354887486}]}]}]}, {"nodeid": 10, "leaf": 0.237272963}]}, {"nodeid": 6, "depth": 2, "split": "f12", "split_condition": 1, "yes": 11, "no": 12, "missing": 12, "children": [{"nodeid": 11, "depth": 3, "split": "f14", "split_condition": 0, "yes": 17, "no": 18, "missing": 18, "children": [{"nodeid": 17, "depth": 4, "split": "f5", "split_condition": 1, "yes": 27, "no": 28, "missing": 28, "children": [{"nodeid": 27, "depth": 5, "split": "f6", "split_condition": 1, "yes": 39, "no": 40, "missing": 40, "children": [{"nodeid": 39, "leaf": 0.0314557627}, {"nodeid": 40, "leaf": 0.19873637}]}, {"nodeid": 28, "leaf": 0.345632464}]}, {"nodeid": 18, "depth": 4, "split": "f1", "split_condition": 1, "yes": 29, "no": 30, "missing": 30, "children": [{"nodeid": 29, "leaf": 0.342983723}, {"nodeid": 30, "depth": 5, "split": "f4", "split_condition": 1, "yes": 41, "no": 42, "missing": 42, "children": [{"nodeid": 41, "leaf": 0.0279814899}, {"nodeid": 42, "leaf": 0.27452141}]}]}]}, {"nodeid": 12, "leaf": 0.328469187}]}]}]}, {"nodeid": 0, "depth": 0, "split": "f7", "split_condition": 1, "yes": 1, "no": 2, "missing": 2, "children": [{"nodeid": 1, "depth": 1, "split": "f12", "split_condition": 0, "yes": 3, "no": 4, "missing": 4, "children": [{"nodeid": 3, "leaf": -0.335959911}, {"nodeid": 4, "depth": 2, "split": "f5", "split_condition": 1, "yes": 7, "no": 8, "missing": 8, "children": [{"nodeid": 7, "depth": 3, "split": "f13", "split_condition": 0, "yes": 11, "no": 12, "missing": 12, "children": [{"nodeid": 11, "depth": 4, "split": "f0", "split_condition": 1, "yes": 17, "no": 18, "missing": 18, "children": [{"nodeid": 17, "depth": 5, "split": "f11", "split_condition": 1, "yes": 27, "no": 28, "missing": 28, "children": [{"nodeid": 27, "leaf": -0.152857736}, {"nodeid": 28, "leaf": -0.309008092}]}, {"nodeid": 18, "depth": 5, "split": "f8", "split_condition": 1, "yes": 29, "no": 30, "missing": 30, "children": [{"nodeid": 29, "leaf": 0.118627124}, {"nodeid": 30, "leaf": -0.147291541}]}]}, {"nodeid": 12, "depth": 4, "split": "f14", "split_condition": 0, "yes": 19, "no": 20, "missing": 20, "children": [{"nodeid": 19, "depth": 5, "split": "f11", "split_condition": 1, "yes": 31, "no": 32, "missing": 32, "children": [{"nodeid": 31, "leaf": -0.187531814}, {"nodeid": 32, "leaf": -0.00584030151}]}, {"nodeid": 20, "depth": 5, "split": "f7", "split_condition": 0, "yes": 33, "no": 34, "missing": 34, "children": [{"nodeid": 33, "leaf": 0.177527368}, {"nodeid": 34, "leaf": -0.309383482}]}]}]}, {"nodeid": 8, "leaf": 0.301452041}]}]}, {"nodeid": 2, "depth": 1, "split": "f12", "split_condition": 1, "yes": 5, "no": 6, "missing": 6, "children": [{"nodeid": 5, "depth": 2, "split": "f12", "split_condition": 0, "yes": 9, "no": 10, "missing": 10, "children": [{"nodeid": 9, "depth": 3, "split": "f5", "split_condition": 1, "yes": 13, "no": 14, "missing": 14, "children": [{"nodeid": 13, "depth": 4, "split": "f11", "split_condition": 1, "yes": 21, "no": 22, "missing": 22, "children": [{"nodeid": 21, "leaf": -0.317018121}, {"nodeid": 22, "depth": 5, "split": "f13", "split_condition": 0, "yes": 35, "no": 36, "missing": 36, "children": [{"nodeid": 35, "leaf": -0.278369457}, {"nodeid": 36, "leaf": -0.00331645971}]}]}, {"nodeid": 14, "leaf": 0.21534504}]}, {"nodeid": 10, "depth": 3, "split": "f14", "split_condition": 0, "yes": 15, "no": 16, "missing": 16, "children": [{"nodeid": 15, "depth": 4, "split": "f5", "split_condition": 1, "yes": 23, "no": 24, "missing": 24, "children": [{"nodeid": 23, "depth": 5, "split": "f2", "split_condition": 1, "yes": 37, "no": 38, "missing": 38, "children": [{"nodeid": 37, "leaf": 0.281151831}, {"nodeid": 38, "leaf": 0.0420898199}]}, {"nodeid": 24, "leaf": 0.327871382}]}, {"nodeid": 16, "depth": 4, "split": "f1", "split_condition": 1, "yes": 25, "no": 26, "missing": 26, "children": [{"nodeid": 25, "leaf": 0.327674091}, {"nodeid": 26, "depth": 5, "split": "f4", "split_condition": 1, "yes": 39, "no": 40, "missing": 40, "children": [{"nodeid": 39, "leaf": 0.0208296254}, {"nodeid": 40, "leaf": 0.247394577}]}]}]}]}, {"nodeid": 6, "leaf": 0.311349392}]}]}, {"nodeid": 0, "depth": 0, "split": "f12", "split_condition": 0, "yes": 1, "no": 2, "missing": 2, "children": [{"nodeid": 1, "depth": 1, "split": "f5", "split_condition": 1, "yes": 3, "no": 4, "missing": 4, "children": [{"nodeid": 3, "depth": 2, "split": "f7", "split_condition": 1, "yes": 7, "no": 8, "missing": 8, "children": [{"nodeid": 7, "leaf": -0.32480067}, {"nodeid": 8, "depth": 3, "split": "f13", "split_condition": 0, "yes": 13, "no": 14, "missing": 14, "children": [{"nodeid": 13, "leaf": -0.29599607}, {"nodeid": 14, "depth": 4, "split": "f11", "split_condition": 1, "yes": 19, "no": 20, "missing": 20, "children": [{"nodeid": 19, "leaf": -0.259129435}, {"nodeid": 20, "depth": 5, "split": "f2", "split_condition": 1, "yes": 29, "no": 30, "missing": 30, "children": [{"nodeid": 29, "leaf": -0.242946073}, {"nodeid": 30, "leaf": 0.109596163}]}]}]}]}, {"nodeid": 4, "leaf": 0.196332663}]}, {"nodeid": 2, "depth": 1, "split": "f7", "split_condition": 1, "yes": 5, "no": 6, "missing": 6, "children": [{"nodeid": 5, "depth": 2, "split": "f5", "split_condition": 1, "yes": 9, "no": 10, "missing": 10, "children": [{"nodeid": 9, "depth": 3, "split": "f7", "split_condition": 0, "yes": 15, "no": 16, "missing": 16, "children": [{"nodeid": 15, "depth": 4, "split": "f14", "split_condition": 0, "yes": 21, "no": 22, "missing": 22, "children": [{"nodeid": 21, "depth": 5, "split": "f15", "split_condition": 1, "yes": 31, "no": 32, "missing": 32, "children": [{"nodeid": 31, "leaf": -0.206633314}, {"nodeid": 32, "leaf": -0.0565868355}]}, {"nodeid": 22, "depth": 5, "split": "f6", "split_condition": 1, "yes": 33, "no": 34, "missing": 34, "children": [{"nodeid": 33, "leaf": 0.0153992139}, {"nodeid": 34, "leaf": 0.373235047}]}]}, {"nodeid": 16, "depth": 4, "split": "f6", "split_condition": 1, "yes": 23, "no": 24, "missing": 24, "children": [{"nodeid": 23, "leaf": -0.358677298}, {"nodeid": 24, "depth": 5, "split": "f0", "split_condition": 1, "yes": 35, "no": 36, "missing": 36, "children": [{"nodeid": 35, "leaf": -0.250143081}, {"nodeid": 36, "leaf": 0.28979075}]}]}]}, {"nodeid": 10, "leaf": 0.282998532}]}, {"nodeid": 6, "depth": 2, "split": "f12", "split_condition": 1, "yes": 11, "no": 12, "missing": 12, "children": [{"nodeid": 11, "depth": 3, "split": "f13", "split_condition": 0, "yes": 17, "no": 18, "missing": 18, "children": [{"nodeid": 17, "depth": 4, "split": "f14", "split_condition": 0, "yes": 25, "no": 26, "missing": 26, "children": [{"nodeid": 25, "depth": 5, "split": "f11", "split_condition": 1, "yes": 37, "no": 38, "missing": 38, "children": [{"nodeid": 37, "leaf": -0.150612324}, {"nodeid": 38, "leaf": 0.0622038879}]}, {"nodeid": 26, "depth": 5, "split": "f4", "split_condition": 1, "yes": 39, "no": 40, "missing": 40, "children": [{"nodeid": 39, "leaf": 0.0746780038}, {"nodeid": 40, "leaf": 0.304496348}]}]}, {"nodeid": 18, "depth": 4, "split": "f5", "split_condition": 1, "yes": 27, "no": 28, "missing": 28, "children": [{"nodeid": 27, "depth": 5, "split": "f14", "split_condition": 0, "yes": 41, "no": 42, "missing": 42, "children": [{"nodeid": 41, "leaf": 0.126237214}, {"nodeid": 42, "leaf": 0.241101369}]}, {"nodeid": 28, "leaf": 0.314408183}]}]}, {"nodeid": 12, "leaf": 0.296686232}]}]}]}, {"nodeid": 0, "depth": 0, "split": "f12", "split_condition": 0, "yes": 1, "no": 2, "missing": 2, "children": [{"nodeid": 1, "depth": 1, "split": "f5", "split_condition": 1, "yes": 3, "no": 4, "missing": 4, "children": [{"nodeid": 3, "depth": 2, "split": "f7", "split_condition": 1, "yes": 7, "no": 8, "missing": 8, "children": [{"nodeid": 7, "leaf": -0.316758096}, {"nodeid": 8, "depth": 3, "split": "f13", "split_condition": 0, "yes": 13, "no": 14, "missing": 14, "children": [{"nodeid": 13, "leaf": -0.28077814}, {"nodeid": 14, "depth": 4, "split": "f11", "split_condition": 1, "yes": 23, "no": 24, "missing": 24, "children": [{"nodeid": 23, "leaf": -0.238798842}, {"nodeid": 24, "depth": 5, "split": "f2", "split_condition": 1, "yes": 39, "no": 40, "missing": 40, "children": [{"nodeid": 39, "leaf": -0.217574641}, {"nodeid": 40, "leaf": 0.0854179561}]}]}]}]}, {"nodeid": 4, "leaf": 0.179560035}]}, {"nodeid": 2, "depth": 1, "split": "f7", "split_condition": 1, "yes": 5, "no": 6, "missing": 6, "children": [{"nodeid": 5, "depth": 2, "split": "f13", "split_condition": 1, "yes": 9, "no": 10, "missing": 10, "children": [{"nodeid": 9, "depth": 3, "split": "f6", "split_condition": 0, "yes": 15, "no": 16, "missing": 16, "children": [{"nodeid": 15, "depth": 4, "split": "f0", "split_condition": 1, "yes": 25, "no": 26, "missing": 26, "children": [{"nodeid": 25, "depth": 5, "split": "f13", "split_condition": 0, "yes": 41, "no": 42, "missing": 42, "children": [{"nodeid": 41, "leaf": -0.107188545}, {"nodeid": 42, "leaf": 0.251401842}]}, {"nodeid": 26, "depth": 5, "split": "f10", "split_condition": 1, "yes": 43, "no": 44, "missing": 44, "children": [{"nodeid": 43, "leaf": 0.119542025}, {"nodeid": 44, "leaf": -0.204204679}]}]}, {"nodeid": 16, "depth": 4, "split": "f0", "split_condition": 1, "yes": 27, "no": 28, "missing": 28, "children": [{"nodeid": 27, "depth": 5, "split": "f2", "split_condition": 1, "yes": 45, "no": 46, "missing": 46, "children": [{"nodeid": 45, "leaf": 0.173040628}, {"nodeid": 46, "leaf": -0.190796927}]}, {"nodeid": 28, "depth": 5, "split": "f11", "split_condition": 1, "yes": 47, "no": 48, "missing": 48, "children": [{"nodeid": 47, "leaf": -0.0759171546}, {"nodeid": 48, "leaf": 0.153983921}]}]}]}, {"nodeid": 10, "depth": 3, "split": "f11", "split_condition": 1, "yes": 17, "no": 18, "missing": 18, "children": [{"nodeid": 17, "depth": 4, "split": "f14", "split_condition": 0, "yes": 29, "no": 30, "missing": 30, "children": [{"nodeid": 29, "depth": 5, "split": "f12", "split_condition": 1, "yes": 49, "no": 50, "missing": 50, "children": [{"nodeid": 49, "leaf": -0.29822436}, {"nodeid": 50, "leaf": 0.126740724}]}, {"nodeid": 30, "leaf": 0.311862409}]}, {"nodeid": 18, "depth": 4, "split": "f10", "split_condition": 1, "yes": 31, "no": 32, "missing": 32, "children": [{"nodeid": 31, "leaf": -0.0742981508}, {"nodeid": 32, "depth": 5, "split": "f3", "split_condition": 1, "yes": 51, "no": 52, "missing": 52, "children": [{"nodeid": 51, "leaf": -0.0382587127}, {"nodeid": 52, "leaf": 0.288966507}]}]}]}]}, {"nodeid": 6, "depth": 2, "split": "f12", "split_condition": 1, "yes": 11, "no": 12, "missing": 12, "children": [{"nodeid": 11, "depth": 3, "split": "f6", "split_condition": 1, "yes": 19, "no": 20, "missing": 20, "children": [{"nodeid": 19, "depth": 4, "split": "f2", "split_condition": 1, "yes": 33, "no": 34, "missing": 34, "children": [{"nodeid": 33, "depth": 5, "split": "f1", "split_condition": 1, "yes": 53, "no": 54, "missing": 54, "children": [{"nodeid": 53, "leaf": 0.322296023}, {"nodeid": 54, "leaf": 0.0149125}]}, {"nodeid": 34, "depth": 5, "split": "f0", "split_condition": 1, "yes": 55, "no": 56, "missing": 56, "children": [{"nodeid": 55, "leaf": -0.179488182}, {"nodeid": 56, "leaf": 0.0499157868}]}]}, {"nodeid": 20, "depth": 4, "split": "f8", "split_condition": 1, "yes": 35, "no": 36, "missing": 36, "children": [{"nodeid": 35, "depth": 5, "split": "f13", "split_condition": 1, "yes": 57, "no": 58, "missing": 58, "children": [{"nodeid": 57, "leaf": 0.331466675}, {"nodeid": 58, "leaf": 0.111921176}]}, {"nodeid": 36, "depth": 5, "split": "f13", "split_condition": 0, "yes": 59, "no": 60, "missing": 60, "children": [{"nodeid": 59, "leaf": 0.0746200159}, {"nodeid": 60, "leaf": 0.191200435}]}]}]}, {"nodeid": 12, "depth": 3, "split": "f13", "split_condition": 0, "yes": 21, "no": 22, "missing": 22, "children": [{"nodeid": 21, "depth": 4, "split": "f3", "split_condition": 1, "yes": 37, "no": 38, "missing": 38, "children": [{"nodeid": 37, "depth": 5, "split": "f5", "split_condition": 1, "yes": 61, "no": 62, "missing": 62, "children": [{"nodeid": 61, "leaf": -0.128676236}, {"nodeid": 62, "leaf": 0.182980523}]}, {"nodeid": 38, "depth": 5, "split": "f11", "split_condition": 1, "yes": 63, "no": 64, "missing": 64, "children": [{"nodeid": 63, "leaf": 0.141412899}, {"nodeid": 64, "leaf": 0.292648852}]}]}, {"nodeid": 22, "leaf": 0.301160872}]}]}]}]}, {"nodeid": 0, "depth": 0, "split": "f12", "split_condition": 0, "yes": 1, "no": 2, "missing": 2, "children": [{"nodeid": 1, "depth": 1, "split": "f5", "split_condition": 1, "yes": 3, "no": 4, "missing": 4, "children": [{"nodeid": 3, "depth": 2, "split": "f7", "split_condition": 1, "yes": 7, "no": 8, "missing": 8, "children": [{"nodeid": 7, "leaf": -0.310686886}, {"nodeid": 8, "depth": 3, "split": "f11", "split_condition": 1, "yes": 11, "no": 12, "missing": 12, "children": [{"nodeid": 11, "leaf": -0.26841107}, {"nodeid": 12, "depth": 4, "split": "f6", "split_condition": 0, "yes": 17, "no": 18, "missing": 18, "children": [{"nodeid": 17, "leaf": 0.0431357659}, {"nodeid": 18, "depth": 5, "split": "f6", "split_condition": 1, "yes": 27, "no": 28, "missing": 28, "children": [{"nodeid": 27, "leaf": -0.316107005}, {"nodeid": 28, "leaf": 0.038516365}]}]}]}]}, {"nodeid": 4, "leaf": 0.164635956}]}, {"nodeid": 2, "depth": 1, "split": "f5", "split_condition": 1, "yes": 5, "no": 6, "missing": 6, "children": [{"nodeid": 5, "depth": 2, "split": "f14", "split_condition": 0, "yes": 9, "no": 10, "missing": 10, "children": [{"nodeid": 9, "depth": 3, "split": "f13", "split_condition": 0, "yes": 13, "no": 14, "missing": 14, "children": [{"nodeid": 13, "depth": 4, "split": "f6", "split_condition": 1, "yes": 19, "no": 20, "missing": 20, "children": [{"nodeid": 19, "depth": 5, "split": "f10", "split_condition": 1, "yes": 29, "no": 30, "missing": 30, "children": [{"nodeid": 29, "leaf": 0.0875423104}, {"nodeid": 30, "leaf": -0.117557175}]}, {"nodeid": 20, "depth": 5, "split": "f7", "split_condition": 0, "yes": 31, "no": 32, "missing": 32, "children": [{"nodeid": 31, "leaf": -0.114674777}, {"nodeid": 32, "leaf": 0.0708730072}]}]}, {"nodeid": 14, "depth": 4, "split": "f12", "split_condition": 1, "yes": 21, "no": 22, "missing": 22, "children": [{"nodeid": 21, "depth": 5, "split": "f7", "split_condition": 1, "yes": 33, "no": 34, "missing": 34, "children": [{"nodeid": 33, "leaf": -0.0589839332}, {"nodeid": 34, "leaf": 0.0768150613}]}, {"nodeid": 22, "depth": 5, "split": "f6", "split_condition": 0, "yes": 35, "no": 36, "missing": 36, "children": [{"nodeid": 35, "leaf": 0.030659968}, {"nodeid": 36, "leaf": 0.27764532}]}]}]}, {"nodeid": 10, "depth": 3, "split": "f7", "split_condition": 1, "yes": 15, "no": 16, "missing": 16, "children": [{"nodeid": 15, "depth": 4, "split": "f7", "split_condition": 0, "yes": 23, "no": 24, "missing": 24, "children": [{"nodeid": 23, "depth": 5, "split": "f6", "split_condition": 1, "yes": 37, "no": 38, "missing": 38, "children": [{"nodeid": 37, "leaf": 0.0124649731}, {"nodeid": 38, "leaf": 0.295305789}]}, {"nodeid": 24, "leaf": -0.277095973}]}, {"nodeid": 16, "depth": 4, "split": "f1", "split_condition": 1, "yes": 25, "no": 26, "missing": 26, "children": [{"nodeid": 25, "leaf": 0.307697445}, {"nodeid": 26, "depth": 5, "split": "f2", "split_condition": 1, "yes": 39, "no": 40, "missing": 40, "children": [{"nodeid": 39, "leaf": -0.10775619}, {"nodeid": 40, "leaf": 0.182035476}]}]}]}]}, {"nodeid": 6, "leaf": 0.312239826}]}]}, {"nodeid": 0, "depth": 0, "split": "f12", "split_condition": 0, "yes": 1, "no": 2, "missing": 2, "children": [{"nodeid": 1, "depth": 1, "split": "f7", "split_condition": 1, "yes": 3, "no": 4, "missing": 4, "children": [{"nodeid": 3, "leaf": -0.305836856}, {"nodeid": 4, "depth": 2, "split": "f11", "split_condition": 1, "yes": 7, "no": 8, "missing": 8, "children": [{"nodeid": 7, "leaf": -0.253316104}, {"nodeid": 8, "depth": 3, "split": "f13", "split_condition": 0, "yes": 11, "no": 12, "missing": 12, "children": [{"nodeid": 11, "leaf": -0.160180315}, {"nodeid": 12, "depth": 4, "split": "f8", "split_condition": 1, "yes": 17, "no": 18, "missing": 18, "children": [{"nodeid": 17, "depth": 5, "split": "f16", "split_condition": 1, "yes": 27, "no": 28, "missing": 28, "children": [{"nodeid": 27, "leaf": 0.0526476875}, {"nodeid": 28, "leaf": -0.301368624}]}, {"nodeid": 18, "leaf": 0.179371819}]}]}]}]}, {"nodeid": 2, "depth": 1, "split": "f5", "split_condition": 1, "yes": 5, "no": 6, "missing": 6, "children": [{"nodeid": 5, "depth": 2, "split": "f14", "split_condition": 0, "yes": 9, "no": 10, "missing": 10, "children": [{"nodeid": 9, "depth": 3, "split": "f2", "split_condition": 1, "yes": 13, "no": 14, "missing": 14, "children": [{"nodeid": 13, "depth": 4, "split": "f1", "split_condition": 1, "yes": 19, "no": 20, "missing": 20, "children": [{"nodeid": 19, "depth": 5, "split": "f15", "split_condition": 1, "yes": 29, "no": 30, "missing": 30, "children": [{"nodeid": 29, "leaf": -0.214018941}, {"nodeid": 30, "leaf": 0.318584353}]}, {"nodeid": 20, "depth": 5, "split": "f13", "split_condition": 0, "yes": 31, "no": 32, "missing": 32, "children": [{"nodeid": 31, "leaf": -0.0288257208}, {"nodeid": 32, "leaf": -0.572600961}]}]}, {"nodeid": 14, "depth": 4, "split": "f4", "split_condition": 1, "yes": 21, "no": 22, "missing": 22, "children": [{"nodeid": 21, "depth": 5, "split": "f11", "split_condition": 1, "yes": 33, "no": 34, "missing": 34, "children": [{"nodeid": 33, "leaf": -0.574660063}, {"nodeid": 34, "leaf": -0.263040662}]}, {"nodeid": 22, "depth": 5, "split": "f0", "split_condition": 1, "yes": 35, "no": 36, "missing": 36, "children": [{"nodeid": 35, "leaf": -0.105054639}, {"nodeid": 36, "leaf": 0.0334311798}]}]}]}, {"nodeid": 10, "depth": 3, "split": "f7", "split_condition": 1, "yes": 15, "no": 16, "missing": 16, "children": [{"nodeid": 15, "depth": 4, "split": "f7", "split_condition": 0, "yes": 23, "no": 24, "missing": 24, "children": [{"nodeid": 23, "depth": 5, "split": "f12", "split_condition": 1, "yes": 37, "no": 38, "missing": 38, "children": [{"nodeid": 37, "leaf": 0.0176326055}, {"nodeid": 38, "leaf": 0.298737109}]}, {"nodeid": 24, "leaf": -0.254117131}]}, {"nodeid": 16, "depth": 4, "split": "f1", "split_condition": 1, "yes": 25, "no": 26, "missing": 26, "children": [{"nodeid": 25, "leaf": 0.300544262}, {"nodeid": 26, "depth": 5, "split": "f2", "split_condition": 1, "yes": 39, "no": 40, "missing": 40, "children": [{"nodeid": 39, "leaf": -0.0737200156}, {"nodeid": 40, "leaf": 0.156449437}]}]}]}]}, {"nodeid": 6, "leaf": 0.305467814}]}]}, {"nodeid": 0, "depth": 0, "split": "f12", "split_condition": 0, "yes": 1, "no": 2, "missing": 2, "children": [{"nodeid": 1, "depth": 1, "split": "f7", "split_condition": 1, "yes": 3, "no": 4, "missing": 4, "children": [{"nodeid": 3, "leaf": -0.301676214}, {"nodeid": 4, "depth": 2, "split": "f11", "split_condition": 1, "yes": 7, "no": 8, "missing": 8, "children": [{"nodeid": 7, "leaf": -0.238271341}, {"nodeid": 8, "depth": 3, "split": "f2", "split_condition": 1, "yes": 11, "no": 12, "missing": 12, "children": [{"nodeid": 11, "leaf": -0.196511671}, {"nodeid": 12, "depth": 4, "split": "f13", "split_condition": 0, "yes": 17, "no": 18, "missing": 18, "children": [{"nodeid": 17, "leaf": -0.135731548}, {"nodeid": 18, "depth": 5, "split": "f8", "split_condition": 1, "yes": 27, "no": 28, "missing": 28, "children": [{"nodeid": 27, "leaf": -0.0712865368}, {"nodeid": 28, "leaf": 0.248493329}]}]}]}]}]}, {"nodeid": 2, "depth": 1, "split": "f5", "split_condition": 1, "yes": 5, "no": 6, "missing": 6, "children": [{"nodeid": 5, "depth": 2, "split": "f6", "split_condition": 1, "yes": 9, "no": 10, "missing": 10, "children": [{"nodeid": 9, "depth": 3, "split": "f10", "split_condition": 1, "yes": 13, "no": 14, "missing": 14, "children": [{"nodeid": 13, "depth": 4, "split": "f3", "split_condition": 1, "yes": 19, "no": 20, "missing": 20, "children": [{"nodeid": 19, "depth": 5, "split": "f14", "split_condition": 0, "yes": 29, "no": 30, "missing": 30, "children": [{"nodeid": 29, "leaf": -0.173737198}, {"nodeid": 30, "leaf": 0.225749418}]}, {"nodeid": 20, "depth": 5, "split": "f2", "split_condition": 1, "yes": 31, "no": 32, "missing": 32, "children": [{"nodeid": 31, "leaf": 0.23918812}, {"nodeid": 32, "leaf": 0.0886372402}]}]}, {"nodeid": 14, "depth": 4, "split": "f11", "split_condition": 1, "yes": 21, "no": 22, "missing": 22, "children": [{"nodeid": 21, "depth": 5, "split": "f16", "split_condition": 1, "yes": 33, "no": 34, "missing": 34, "children": [{"nodeid": 33, "leaf": -0.518770814}, {"nodeid": 34, "leaf": -0.0685976148}]}, {"nodeid": 22, "depth": 5, "split": "f16", "split_condition": 1, "yes": 35, "no": 36, "missing": 36, "children": [{"nodeid": 35, "leaf": 0.315332204}, {"nodeid": 36, "leaf": -0.0242029261}]}]}]}, {"nodeid": 10, "depth": 3, "split": "f12", "split_condition": 1, "yes": 15, "no": 16, "missing": 16, "children": [{"nodeid": 15, "depth": 4, "split": "f7", "split_condition": 0, "yes": 23, "no": 24, "missing": 24, "children": [{"nodeid": 23, "depth": 5, "split": "f14", "split_condition": 0, "yes": 37, "no": 38, "missing": 38, "children": [{"nodeid": 37, "leaf": -0.0799886882}, {"nodeid": 38, "leaf": 0.219226494}]}, {"nodeid": 24, "depth": 5, "split": "f8", "split_condition": 1, "yes": 39, "no": 40, "missing": 40, "children": [{"nodeid": 39, "leaf": 0.21577622}, {"nodeid": 40, "leaf": 0.0628741682}]}]}, {"nodeid": 16, "depth": 4, "split": "f13", "split_condition": 0, "yes": 25, "no": 26, "missing": 26, "children": [{"nodeid": 25, "depth": 5, "split": "f7", "split_condition": 1, "yes": 41, "no": 42, "missing": 42, "children": [{"nodeid": 41, "leaf": -0.0812029094}, {"nodeid": 42, "leaf": 0.208461151}]}, {"nodeid": 26, "leaf": 0.282135636}]}]}]}, {"nodeid": 6, "leaf": 0.299442321}]}]}, {"nodeid": 0, "depth": 0, "split": "f12", "split_condition": 0, "yes": 1, "no": 2, "missing": 2, "children": [{"nodeid": 1, "depth": 1, "split": "f7", "split_condition": 1, "yes": 3, "no": 4, "missing": 4, "children": [{"nodeid": 3, "leaf": -0.297796875}, {"nodeid": 4, "depth": 2, "split": "f11", "split_condition": 1, "yes": 7, "no": 8, "missing": 8, "children": [{"nodeid": 7, "leaf": -0.223186269}, {"nodeid": 8, "depth": 3, "split": "f6", "split_condition": 0, "yes": 11, "no": 12, "missing": 12, "children": [{"nodeid": 11, "leaf": 0.0665472969}, {"nodeid": 12, "depth": 4, "split": "f6", "split_condition": 1, "yes": 17, "no": 18, "missing": 18, "children": [{"nodeid": 17, "leaf": -0.271477759}, {"nodeid": 18, "depth": 5, "split": "f0", "split_condition": 1, "yes": 27, "no": 28, "missing": 28, "children": [{"nodeid": 27, "leaf": 0.137651697}, {"nodeid": 28, "leaf": -0.0302482396}]}]}]}]}]}, {"nodeid": 2, "depth": 1, "split": "f5", "split_condition": 1, "yes": 5, "no": 6, "missing": 6, "children": [{"nodeid": 5, "depth": 2, "split": "f13", "split_condition": 0, "yes": 9, "no": 10, "missing": 10, "children": [{"nodeid": 9, "depth": 3, "split": "f8", "split_condition": 1, "yes": 13, "no": 14, "missing": 14, "children": [{"nodeid": 13, "depth": 4, "split": "f11", "split_condition": 1, "yes": 19, "no": 20, "missing": 20, "children": [{"nodeid": 19, "depth": 5, "split": "f9", "split_condition": 1, "yes": 29, "no": 30, "missing": 30, "children": [{"nodeid": 29, "leaf": -0.383654386}, {"nodeid": 30, "leaf": -0.0692462698}]}, {"nodeid": 20, "depth": 5, "split": "f12", "split_condition": 1, "yes": 31, "no": 32, "missing": 32, "children": [{"nodeid": 31, "leaf": 0.332722902}, {"nodeid": 32, "leaf": 0.0962666422}]}]}, {"nodeid": 14, "depth": 4, "split": "f6", "split_condition": 0, "yes": 21, "no": 22, "missing": 22, "children": [{"nodeid": 21, "depth": 5, "split": "f2", "split_condition": 1, "yes": 33, "no": 34, "missing": 34, "children": [{"nodeid": 33, "leaf": 0.105199166}, {"nodeid": 34, "leaf": -0.117544003}]}, {"nodeid": 22, "depth": 5, "split": "f11", "split_condition": 1, "yes": 35, "no": 36, "missing": 36, "children": [{"nodeid": 35, "leaf": 0.0320632085}, {"nodeid": 36, "leaf": -0.076535359}]}]}]}, {"nodeid": 10, "depth": 3, "split": "f12", "split_condition": 1, "yes": 15, "no": 16, "missing": 16, "children": [{"nodeid": 15, "depth": 4, "split": "f7", "split_condition": 1, "yes": 23, "no": 24, "missing": 24, "children": [{"nodeid": 23, "depth": 5, "split": "f1", "split_condition": 1, "yes": 37, "no": 38, "missing": 38, "children": [{"nodeid": 37, "leaf": -0.0448233187}, {"nodeid": 38, "leaf": 0.101978824}]}, {"nodeid": 24, "depth": 5, "split": "f15", "split_condition": 1, "yes": 39, "no": 40, "missing": 40, "children": [{"nodeid": 39, "leaf": 0.210453585}, {"nodeid": 40, "leaf": 0.0339492932}]}]}, {"nodeid": 16, "depth": 4, "split": "f7", "split_condition": 1, "yes": 25, "no": 26, "missing": 26, "children": [{"nodeid": 25, "depth": 5, "split": "f16", "split_condition": 1, "yes": 41, "no": 42, "missing": 42, "children": [{"nodeid": 41, "leaf": -0.282589197}, {"nodeid": 42, "leaf": 0.121794514}]}, {"nodeid": 26, "depth": 5, "split": "f4", "split_condition": 1, "yes": 43, "no": 44, "missing": 44, "children": [{"nodeid": 43, "leaf": 0.000399352779}, {"nodeid": 44, "leaf": 0.291202068}]}]}]}]}, {"nodeid": 6, "leaf": 0.293627203}]}]}, {"nodeid": 0, "depth": 0, "split": "f12", "split_condition": 0, "yes": 1, "no": 2, "missing": 2, "children": [{"nodeid": 1, "depth": 1, "split": "f7", "split_condition": 1, "yes": 3, "no": 4, "missing": 4, "children": [{"nodeid": 3, "leaf": -0.293859214}, {"nodeid": 4, "depth": 2, "split": "f11", "split_condition": 1, "yes": 7, "no": 8, "missing": 8, "children": [{"nodeid": 7, "leaf": -0.208168194}, {"nodeid": 8, "depth": 3, "split": "f6", "split_condition": 1, "yes": 11, "no": 12, "missing": 12, "children": [{"nodeid": 11, "depth": 4, "split": "f6", "split_condition": 0, "yes": 17, "no": 18, "missing": 18, "children": [{"nodeid": 17, "leaf": 0.0521251597}, {"nodeid": 18, "leaf": -0.244739354}]}, {"nodeid": 12, "depth": 4, "split": "f0", "split_condition": 1, "yes": 19, "no": 20, "missing": 20, "children": [{"nodeid": 19, "leaf": 0.118859701}, {"nodeid": 20, "leaf": -0.0249055475}]}]}]}]}, {"nodeid": 2, "depth": 1, "split": "f5", "split_condition": 1, "yes": 5, "no": 6, "missing": 6, "children": [{"nodeid": 5, "depth": 2, "split": "f14", "split_condition": 0, "yes": 9, "no": 10, "missing": 10, "children": [{"nodeid": 9, "depth": 3, "split": "f2", "split_condition": 1, "yes": 13, "no": 14, "missing": 14, "children": [{"nodeid": 13, "depth": 4, "split": "f1", "split_condition": 1, "yes": 21, "no": 22, "missing": 22, "children": [{"nodeid": 21, "depth": 5, "split": "f15", "split_condition": 1, "yes": 29, "no": 30, "missing": 30, "children": [{"nodeid": 29, "leaf": -0.180214286}, {"nodeid": 30, "leaf": 0.290677696}]}, {"nodeid": 22, "depth": 5, "split": "f13", "split_condition": 0, "yes": 31, "no": 32, "missing": 32, "children": [{"nodeid": 31, "leaf": 0.000433308654}, {"nodeid": 32, "leaf": -0.387622982}]}]}, {"nodeid": 14, "depth": 4, "split": "f4", "split_condition": 1, "yes": 23, "no": 24, "missing": 24, "children": [{"nodeid": 23, "depth": 5, "split": "f11", "split_condition": 1, "yes": 33, "no": 34, "missing": 34, "children": [{"nodeid": 33, "leaf": -0.494497806}, {"nodeid": 34, "leaf": -0.213686109}]}, {"nodeid": 24, "depth": 5, "split": "f0", "split_condition": 1, "yes": 35, "no": 36, "missing": 36, "children": [{"nodeid": 35, "leaf": -0.0816844255}, {"nodeid": 36, "leaf": 0.023359647}]}]}]}, {"nodeid": 10, "depth": 3, "split": "f7", "split_condition": 1, "yes": 15, "no": 16, "missing": 16, "children": [{"nodeid": 15, "depth": 4, "split": "f7", "split_condition": 0, "yes": 25, "no": 26, "missing": 26, "children": [{"nodeid": 25, "depth": 5, "split": "f6", "split_condition": 0, "yes": 37, "no": 38, "missing": 38, "children": [{"nodeid": 37, "leaf": -0.088117823}, {"nodeid": 38, "leaf": 0.0967990309}]}, {"nodeid": 26, "leaf": -0.233300805}]}, {"nodeid": 16, "depth": 4, "split": "f1", "split_condition": 1, "yes": 27, "no": 28, "missing": 28, "children": [{"nodeid": 27, "leaf": 0.290965021}, {"nodeid": 28, "depth": 5, "split": "f15", "split_condition": 1, "yes": 39, "no": 40, "missing": 40, "children": [{"nodeid": 39, "leaf": 0.237598822}, {"nodeid": 40, "leaf": -0.0260797907}]}]}]}]}, {"nodeid": 6, "leaf": 0.287581921}]}]}, {"nodeid": 0, "depth": 0, "split": "f12", "split_condition": 0, "yes": 1, "no": 2, "missing": 2, "children": [{"nodeid": 1, "depth": 1, "split": "f7", "split_condition": 1, "yes": 3, "no": 4, "missing": 4, "children": [{"nodeid": 3, "leaf": -0.289561033}, {"nodeid": 4, "depth": 2, "split": "f11", "split_condition": 1, "yes": 7, "no": 8, "missing": 8, "children": [{"nodeid": 7, "leaf": -0.193431988}, {"nodeid": 8, "depth": 3, "split": "f2", "split_condition": 1, "yes": 11, "no": 12, "missing": 12, "children": [{"nodeid": 11, "leaf": -0.183853209}, {"nodeid": 12, "depth": 4, "split": "f13", "split_condition": 0, "yes": 17, "no": 18, "missing": 18, "children": [{"nodeid": 17, "leaf": -0.10586796}, {"nodeid": 18, "depth": 5, "split": "f8", "split_condition": 1, "yes": 27, "no": 28, "missing": 28, "children": [{"nodeid": 27, "leaf": -0.0424481183}, {"nodeid": 28, "leaf": 0.220909178}]}]}]}]}]}, {"nodeid": 2, "depth": 1, "split": "f5", "split_condition": 1, "yes": 5, "no": 6, "missing": 6, "children": [{"nodeid": 5, "depth": 2, "split": "f6", "split_condition": 1, "yes": 9, "no": 10, "missing": 10, "children": [{"nodeid": 9, "depth": 3, "split": "f10", "split_condition": 1, "yes": 13, "no": 14, "missing": 14, "children": [{"nodeid": 13, "depth": 4, "split": "f9", "split_condition": 1, "yes": 19, "no": 20, "missing": 20, "children": [{"nodeid": 19, "leaf": -0.120449744}, {"nodeid": 20, "depth": 5, "split": "f13", "split_condition": 0, "yes": 29, "no": 30, "missing": 30, "children": [{"nodeid": 29, "leaf": 0.0317538306}, {"nodeid": 30, "leaf": 0.247937635}]}]}, {"nodeid": 14, "depth": 4, "split": "f4", "split_condition": 1, "yes": 21, "no": 22, "missing": 22, "children": [{"nodeid": 21, "leaf": -0.328274846}, {"nodeid": 22, "depth": 5, "split": "f0", "split_condition": 1, "yes": 31, "no": 32, "missing": 32, "children": [{"nodeid": 31, "leaf": -0.0838861167}, {"nodeid": 32, "leaf": -0.000647319364}]}]}]}, {"nodeid": 10, "depth": 3, "split": "f12", "split_condition": 1, "yes": 15, "no": 16, "missing": 16, "children": [{"nodeid": 15, "depth": 4, "split": "f13", "split_condition": 1, "yes": 23, "no": 24, "missing": 24, "children": [{"nodeid": 23, "depth": 5, "split": "f13", "split_condition": 0, "yes": 33, "no": 34, "missing": 34, "children": [{"nodeid": 33, "leaf": 0.00475332886}, {"nodeid": 34, "leaf": 0.116691455}]}, {"nodeid": 24, "depth": 5, "split": "f4", "split_condition": 1, "yes": 35, "no": 36, "missing": 36, "children": [{"nodeid": 35, "leaf": 0.208677456}, {"nodeid": 36, "leaf": -0.0899535492}]}]}, {"nodeid": 16, "depth": 4, "split": "f7", "split_condition": 1, "yes": 25, "no": 26, "missing": 26, "children": [{"nodeid": 25, "depth": 5, "split": "f13", "split_condition": 0, "yes": 37, "no": 38, "missing": 38, "children": [{"nodeid": 37, "leaf": -0.0690949187}, {"nodeid": 38, "leaf": 0.161907971}]}, {"nodeid": 26, "depth": 5, "split": "f16", "split_condition": 1, "yes": 39, "no": 40, "missing": 40, "children": [{"nodeid": 39, "leaf": 0.0226183161}, {"nodeid": 40, "leaf": 0.277822047}]}]}]}]}, {"nodeid": 6, "leaf": 0.280933797}]}]}, {"nodeid": 0, "depth": 0, "split": "f12", "split_condition": 0, "yes": 1, "no": 2, "missing": 2, "children": [{"nodeid": 1, "depth": 1, "split": "f7", "split_condition": 1, "yes": 3, "no": 4, "missing": 4, "children": [{"nodeid": 3, "leaf": -0.284621745}, {"nodeid": 4, "depth": 2, "split": "f16", "split_condition": 1, "yes": 7, "no": 8, "missing": 8, "children": [{"nodeid": 7, "leaf": 0.0478249341}, {"nodeid": 8, "depth": 3, "split": "f8", "split_condition": 1, "yes": 11, "no": 12, "missing": 12, "children": [{"nodeid": 11, "leaf": -0.236464307}, {"nodeid": 12, "depth": 4, "split": "f13", "split_condition": 0, "yes": 17, "no": 18, "missing": 18, "children": [{"nodeid": 17, "leaf": -0.142156795}, {"nodeid": 18, "depth": 5, "split": "f6", "split_condition": 1, "yes": 27, "no": 28, "missing": 28, "children": [{"nodeid": 27, "leaf": 0.0187868234}, {"nodeid": 28, "leaf": 0.0792303085}]}]}]}]}]}, {"nodeid": 2, "depth": 1, "split": "f5", "split_condition": 1, "yes": 5, "no": 6, "missing": 6, "children": [{"nodeid": 5, "depth": 2, "split": "f14", "split_condition": 0, "yes": 9, "no": 10, "missing": 10, "children": [{"nodeid": 9, "depth": 3, "split": "f1", "split_condition": 1, "yes": 13, "no": 14, "missing": 14, "children": [{"nodeid": 13, "depth": 4, "split": "f2", "split_condition": 1, "yes": 19, "no": 20, "missing": 20, "children": [{"nodeid": 19, "depth": 5, "split": "f15", "split_condition": 1, "yes": 29, "no": 30, "missing": 30, "children": [{"nodeid": 29, "leaf": -0.144283161}, {"nodeid": 30, "leaf": 0.263850838}]}, {"nodeid": 20, "depth": 5, "split": "f4", "split_condition": 1, "yes": 31, "no": 32, "missing": 32, "children": [{"nodeid": 31, "leaf": -0.401177227}, {"nodeid": 32, "leaf": -0.0124540804}]}]}, {"nodeid": 14, "depth": 4, "split": "f15", "split_condition": 1, "yes": 21, "no": 22, "missing": 22, "children": [{"nodeid": 21, "depth": 5, "split": "f11", "split_condition": 1, "yes": 33, "no": 34, "missing": 34, "children": [{"nodeid": 33, "leaf": 0.0745580494}, {"nodeid": 34, "leaf": 0.393068284}]}, {"nodeid": 22, "depth": 5, "split": "f0", "split_condition": 1, "yes": 35, "no": 36, "missing": 36, "children": [{"nodeid": 35, "leaf": -0.108416826}, {"nodeid": 36, "leaf": 0.146242157}]}]}]}, {"nodeid": 10, "depth": 3, "split": "f1", "split_condition": 1, "yes": 15, "no": 16, "missing": 16, "children": [{"nodeid": 15, "depth": 4, "split": "f7", "split_condition": 1, "yes": 23, "no": 24, "missing": 24, "children": [{"nodeid": 23, "depth": 5, "split": "f8", "split_condition": 1, "yes": 37, "no": 38, "missing": 38, "children": [{"nodeid": 37, "leaf": -0.201228648}, {"nodeid": 38, "leaf": 0.0675511584}]}, {"nodeid": 24, "leaf": 0.283291787}]}, {"nodeid": 16, "depth": 4, "split": "f15", "split_condition": 1, "yes": 25, "no": 26, "missing": 26, "children": [{"nodeid": 25, "leaf": 0.265239179}, {"nodeid": 26, "depth": 5, "split": "f14", "split_condition": 1, "yes": 39, "no": 40, "missing": 40, "children": [{"nodeid": 39, "leaf": 0.133686215}, {"nodeid": 40, "leaf": -0.0972793475}]}]}]}]}, {"nodeid": 6, "leaf": 0.273373395}]}]}, {"nodeid": 0, "depth": 0, "split": "f12", "split_condition": 0, "yes": 1, "no": 2, "missing": 2, "children": [{"nodeid": 1, "depth": 1, "split": "f7", "split_condition": 1, "yes": 3, "no": 4, "missing": 4, "children": [{"nodeid": 3, "leaf": -0.278780609}, {"nodeid": 4, "depth": 2, "split": "f11", "split_condition": 1, "yes": 7, "no": 8, "missing": 8, "children": [{"nodeid": 7, "leaf": -0.173663437}, {"nodeid": 8, "depth": 3, "split": "f6", "split_condition": 0, "yes": 11, "no": 12, "missing": 12, "children": [{"nodeid": 11, "leaf": 0.058139924}, {"nodeid": 12, "depth": 4, "split": "f6", "split_condition": 1, "yes": 17, "no": 18, "missing": 18, "children": [{"nodeid": 17, "leaf": -0.210782677}, {"nodeid": 18, "depth": 5, "split": "f0", "split_condition": 1, "yes": 27, "no": 28, "missing": 28, "children": [{"nodeid": 27, "leaf": 0.108545929}, {"nodeid": 28, "leaf": -0.0277354643}]}]}]}]}]}, {"nodeid": 2, "depth": 1, "split": "f5", "split_condition": 1, "yes": 5, "no": 6, "missing": 6, "children": [{"nodeid": 5, "depth": 2, "split": "f13", "split_condition": 0, "yes": 9, "no": 10, "missing": 10, "children": [{"nodeid": 9, "depth": 3, "split": "f8", "split_condition": 1, "yes": 13, "no": 14, "missing": 14, "children": [{"nodeid": 13, "depth": 4, "split": "f11", "split_condition": 1, "yes": 19, "no": 20, "missing": 20, "children": [{"nodeid": 19, "depth": 5, "split": "f6", "split_condition": 0, "yes": 29, "no": 30, "missing": 30, "children": [{"nodeid": 29, "leaf": -0.374152362}, {"nodeid": 30, "leaf": -0.10815639}]}, {"nodeid": 20, "depth": 5, "split": "f12", "split_condition": 1, "yes": 31, "no": 32, "missing": 32, "children": [{"nodeid": 31, "leaf": 0.282586694}, {"nodeid": 32, "leaf": 0.0374440998}]}]}, {"nodeid": 14, "depth": 4, "split": "f15", "split_condition": 1, "yes": 21, "no": 22, "missing": 22, "children": [{"nodeid": 21, "depth": 5, "split": "f11", "split_condition": 1, "yes": 33, "no": 34, "missing": 34, "children": [{"nodeid": 33, "leaf": 0.264582992}, {"nodeid": 34, "leaf": -0.32751441}]}, {"nodeid": 22, "depth": 5, "split": "f6", "split_condition": 0, "yes": 35, "no": 36, "missing": 36, "children": [{"nodeid": 35, "leaf": -0.0708601996}, {"nodeid": 36, "leaf": -0.00885718502}]}]}]}, {"nodeid": 10, "depth": 3, "split": "f12", "split_condition": 1, "yes": 15, "no": 16, "missing": 16, "children": [{"nodeid": 15, "depth": 4, "split": "f0", "split_condition": 1, "yes": 23, "no": 24, "missing": 24, "children": [{"nodeid": 23, "depth": 5, "split": "f6", "split_condition": 0, "yes": 37, "no": 38, "missing": 38, "children": [{"nodeid": 37, "leaf": 0.29141286}, {"nodeid": 38, "leaf": -0.11982812}]}, {"nodeid": 24, "depth": 5, "split": "f6", "split_condition": 0, "yes": 39, "no": 40, "missing": 40, "children": [{"nodeid": 39, "leaf": -0.0652987733}, {"nodeid": 40, "leaf": 0.0877071768}]}]}, {"nodeid": 16, "depth": 4, "split": "f7", "split_condition": 1, "yes": 25, "no": 26, "missing": 26, "children": [{"nodeid": 25, "depth": 5, "split": "f7", "split_condition": 0, "yes": 41, "no": 42, "missing": 42, "children": [{"nodeid": 41, "leaf": 0.0877950266}, {"nodeid": 42, "leaf": -0.230762541}]}, {"nodeid": 26, "depth": 5, "split": "f4", "split_condition": 1, "yes": 43, "no": 44, "missing": 44, "children": [{"nodeid": 43, "leaf": -0.0202258546}, {"nodeid": 44, "leaf": 0.280361116}]}]}]}]}, {"nodeid": 6, "leaf": 0.264668286}]}]}, {"nodeid": 0, "depth": 0, "split": "f12", "split_condition": 0, "yes": 1, "no": 2, "missing": 2, "children": [{"nodeid": 1, "depth": 1, "split": "f7", "split_condition": 1, "yes": 3, "no": 4, "missing": 4, "children": [{"nodeid": 3, "leaf": -0.271807939}, {"nodeid": 4, "depth": 2, "split": "f16", "split_condition": 1, "yes": 7, "no": 8, "missing": 8, "children": [{"nodeid": 7, "leaf": 0.0426782109}, {"nodeid": 8, "depth": 3, "split": "f0", "split_condition": 1, "yes": 11, "no": 12, "missing": 12, "children": [{"nodeid": 11, "leaf": -0.133413151}, {"nodeid": 12, "depth": 4, "split": "f13", "split_condition": 0, "yes": 17, "no": 18, "missing": 18, "children": [{"nodeid": 17, "leaf": -0.13059321}, {"nodeid": 18, "leaf": 0.0282375496}]}]}]}]}, {"nodeid": 2, "depth": 1, "split": "f5", "split_condition": 1, "yes": 5, "no": 6, "missing": 6, "children": [{"nodeid": 5, "depth": 2, "split": "f7", "split_condition": 1, "yes": 9, "no": 10, "missing": 10, "children": [{"nodeid": 9, "depth": 3, "split": "f7", "split_condition": 0, "yes": 13, "no": 14, "missing": 14, "children": [{"nodeid": 13, "depth": 4, "split": "f13", "split_condition": 1, "yes": 19, "no": 20, "missing": 20, "children": [{"nodeid": 19, "depth": 5, "split": "f15", "split_condition": 1, "yes": 27, "no": 28, "missing": 28, "children": [{"nodeid": 27, "leaf": -0.160130605}, {"nodeid": 28, "leaf": 0.00415267656}]}, {"nodeid": 20, "depth": 5, "split": "f10", "split_condition": 1, "yes": 29, "no": 30, "missing": 30, "children": [{"nodeid": 29, "leaf": -0.225312114}, {"nodeid": 30, "leaf": 0.126660377}]}]}, {"nodeid": 14, "depth": 4, "split": "f6", "split_condition": 1, "yes": 21, "no": 22, "missing": 22, "children": [{"nodeid": 21, "leaf": -0.321790844}, {"nodeid": 22, "depth": 5, "split": "f11", "split_condition": 1, "yes": 31, "no": 32, "missing": 32, "children": [{"nodeid": 31, "leaf": -0.197457418}, {"nodeid": 32, "leaf": 0.171656817}]}]}]}, {"nodeid": 10, "depth": 3, "split": "f12", "split_condition": 1, "yes": 15, "no": 16, "missing": 16, "children": [{"nodeid": 15, "depth": 4, "split": "f15", "split_condition": 1, "yes": 23, "no": 24, "missing": 24, "children": [{"nodeid": 23, "depth": 5, "split": "f1", "split_condition": 0, "yes": 33, "no": 34, "missing": 34, "children": [{"nodeid": 33, "leaf": 0.0610927716}, {"nodeid": 34, "leaf": 0.298705071}]}, {"nodeid": 24, "depth": 5, "split": "f6", "split_condition": 1, "yes": 35, "no": 36, "missing": 36, "children": [{"nodeid": 35, "leaf": -0.0328146107}, {"nodeid": 36, "leaf": 0.0347954556}]}]}, {"nodeid": 16, "depth": 4, "split": "f3", "split_condition": 1, "yes": 25, "no": 26, "missing": 26, "children": [{"nodeid": 25, "depth": 5, "split": "f13", "split_condition": 0, "yes": 37, "no": 38, "missing": 38, "children": [{"nodeid": 37, "leaf": -0.248015165}, {"nodeid": 38, "leaf": 0.0850417912}]}, {"nodeid": 26, "depth": 5, "split": "f11", "split_condition": 1, "yes": 39, "no": 40, "missing": 40, "children": [{"nodeid": 39, "leaf": 0.0799662843}, {"nodeid": 40, "leaf": 0.282088399}]}]}]}]}, {"nodeid": 6, "leaf": 0.25468871}]}]}, {"nodeid": 0, "depth": 0, "split": "f12", "split_condition": 0, "yes": 1, "no": 2, "missing": 2, "children": [{"nodeid": 1, "depth": 1, "split": "f7", "split_condition": 1, "yes": 3, "no": 4, "missing": 4, "children": [{"nodeid": 3, "leaf": -0.263528943}, {"nodeid": 4, "depth": 2, "split": "f11", "split_condition": 1, "yes": 7, "no": 8, "missing": 8, "children": [{"nodeid": 7, "leaf": -0.156039566}, {"nodeid": 8, "depth": 3, "split": "f3", "split_condition": 1, "yes": 11, "no": 12, "missing": 12, "children": [{"nodeid": 11, "leaf": -0.0991941765}, {"nodeid": 12, "depth": 4, "split": "f8", "split_condition": 1, "yes": 17, "no": 18, "missing": 18, "children": [{"nodeid": 17, "leaf": -0.0487300269}, {"nodeid": 18, "depth": 5, "split": "f13", "split_condition": 0, "yes": 27, "no": 28, "missing": 28, "children": [{"nodeid": 27, "leaf": -0.0443354137}, {"nodeid": 28, "leaf": 0.179269969}]}]}]}]}]}, {"nodeid": 2, "depth": 1, "split": "f5", "split_condition": 1, "yes": 5, "no": 6, "missing": 6, "children": [{"nodeid": 5, "depth": 2, "split": "f14", "split_condition": 0, "yes": 9, "no": 10, "missing": 10, "children": [{"nodeid": 9, "depth": 3, "split": "f1", "split_condition": 1, "yes": 13, "no": 14, "missing": 14, "children": [{"nodeid": 13, "depth": 4, "split": "f2", "split_condition": 1, "yes": 19, "no": 20, "missing": 20, "children": [{"nodeid": 19, "depth": 5, "split": "f4", "split_condition": 1, "yes": 29, "no": 30, "missing": 30, "children": [{"nodeid": 29, "leaf": 0.26541096}, {"nodeid": 30, "leaf": -0.0988642201}]}, {"nodeid": 20, "depth": 5, "split": "f4", "split_condition": 1, "yes": 31, "no": 32, "missing": 32, "children": [{"nodeid": 31, "leaf": -0.356737524}, {"nodeid": 32, "leaf": -0.0106640942}]}]}, {"nodeid": 14, "depth": 4, "split": "f13", "split_condition": 1, "yes": 21, "no": 22, "missing": 22, "children": [{"nodeid": 21, "depth": 5, "split": "f6", "split_condition": 0, "yes": 33, "no": 34, "missing": 34, "children": [{"nodeid": 33, "leaf": 0.319191158}, {"nodeid": 34, "leaf": 0.0731420144}]}, {"nodeid": 22, "depth": 5, "split": "f3", "split_condition": 1, "yes": 35, "no": 36, "missing": 36, "children": [{"nodeid": 35, "leaf": -0.472582847}, {"nodeid": 36, "leaf": 0.00981467962}]}]}]}, {"nodeid": 10, "depth": 3, "split": "f1", "split_condition": 1, "yes": 15, "no": 16, "missing": 16, "children": [{"nodeid": 15, "depth": 4, "split": "f7", "split_condition": 1, "yes": 23, "no": 24, "missing": 24, "children": [{"nodeid": 23, "depth": 5, "split": "f8", "split_condition": 1, "yes": 37, "no": 38, "missing": 38, "children": [{"nodeid": 37, "leaf": -0.153153017}, {"nodeid": 38, "leaf": 0.0593615435}]}, {"nodeid": 24, "leaf": 0.273623735}]}, {"nodeid": 16, "depth": 4, "split": "f15", "split_condition": 1, "yes": 25, "no": 26, "missing": 26, "children": [{"nodeid": 25, "leaf": 0.237618521}, {"nodeid": 26, "depth": 5, "split": "f13", "split_condition": 1, "yes": 39, "no": 40, "missing": 40, "children": [{"nodeid": 39, "leaf": 0.00901815016}, {"nodeid": 40, "leaf": -0.164217383}]}]}]}]}, {"nodeid": 6, "leaf": 0.243432447}]}]}, {"nodeid": 0, "depth": 0, "split": "f12", "split_condition": 0, "yes": 1, "no": 2, "missing": 2, "children": [{"nodeid": 1, "depth": 1, "split": "f7", "split_condition": 1, "yes": 3, "no": 4, "missing": 4, "children": [{"nodeid": 3, "leaf": -0.253855675}, {"nodeid": 4, "depth": 2, "split": "f16", "split_condition": 1, "yes": 7, "no": 8, "missing": 8, "children": [{"nodeid": 7, "leaf": 0.0506503917}, {"nodeid": 8, "depth": 3, "split": "f6", "split_condition": 0, "yes": 11, "no": 12, "missing": 12, "children": [{"nodeid": 11, "leaf": -0.0321991481}, {"nodeid": 12, "leaf": -0.102796607}]}]}]}, {"nodeid": 2, "depth": 1, "split": "f5", "split_condition": 1, "yes": 5, "no": 6, "missing": 6, "children": [{"nodeid": 5, "depth": 2, "split": "f13", "split_condition": 0, "yes": 9, "no": 10, "missing": 10, "children": [{"nodeid": 9, "depth": 3, "split": "f8", "split_condition": 1, "yes": 13, "no": 14, "missing": 14, "children": [{"nodeid": 13, "depth": 4, "split": "f11", "split_condition": 1, "yes": 17, "no": 18, "missing": 18, "children": [{"nodeid": 17, "depth": 5, "split": "f6", "split_condition": 0, "yes": 25, "no": 26, "missing": 26, "children": [{"nodeid": 25, "leaf": -0.321213752}, {"nodeid": 26, "leaf": -0.0817941874}]}, {"nodeid": 18, "depth": 5, "split": "f12", "split_condition": 1, "yes": 27, "no": 28, "missing": 28, "children": [{"nodeid": 27, "leaf": 0.24144794}, {"nodeid": 28, "leaf": 0.0393102281}]}]}, {"nodeid": 14, "depth": 4, "split": "f15", "split_condition": 1, "yes": 19, "no": 20, "missing": 20, "children": [{"nodeid": 19, "depth": 5, "split": "f11", "split_condition": 1, "yes": 29, "no": 30, "missing": 30, "children": [{"nodeid": 29, "leaf": 0.194179729}, {"nodeid": 30, "leaf": -0.289320678}]}, {"nodeid": 20, "depth": 5, "split": "f1", "split_condition": 0, "yes": 31, "no": 32, "missing": 32, "children": [{"nodeid": 31, "leaf": -0.0121539067}, {"nodeid": 32, "leaf": -0.0969886035}]}]}]}, {"nodeid": 10, "depth": 3, "split": "f12", "split_condition": 1, "yes": 15, "no": 16, "missing": 16, "children": [{"nodeid": 15, "depth": 4, "split": "f16", "split_condition": 1, "yes": 21, "no": 22, "missing": 22, "children": [{"nodeid": 21, "depth": 5, "split": "f11", "split_condition": 1, "yes": 33, "no": 34, "missing": 34, "children": [{"nodeid": 33, "leaf": -0.575972617}, {"nodeid": 34, "leaf": 0.32221207}]}, {"nodeid": 22, "depth": 5, "split": "f0", "split_condition": 1, "yes": 35, "no": 36, "missing": 36, "children": [{"nodeid": 35, "leaf": -0.049069386}, {"nodeid": 36, "leaf": 0.0215786118}]}]}, {"nodeid": 16, "depth": 4, "split": "f6", "split_condition": 0, "yes": 23, "no": 24, "missing": 24, "children": [{"nodeid": 23, "depth": 5, "split": "f16", "split_condition": 1, "yes": 37, "no": 38, "missing": 38, "children": [{"nodeid": 37, "leaf": -0.231076226}, {"nodeid": 38, "leaf": 0.0629034042}]}, {"nodeid": 24, "depth": 5, "split": "f7", "split_condition": 1, "yes": 39, "no": 40, "missing": 40, "children": [{"nodeid": 39, "leaf": 0.117058828}, {"nodeid": 40, "leaf": 0.250811398}]}]}]}]}, {"nodeid": 6, "leaf": 0.231040254}]}]}, {"nodeid": 0, "depth": 0, "split": "f5", "split_condition": 1, "yes": 1, "no": 2, "missing": 2, "children": [{"nodeid": 1, "depth": 1, "split": "f12", "split_condition": 0, "yes": 3, "no": 4, "missing": 4, "children": [{"nodeid": 3, "depth": 2, "split": "f16", "split_condition": 1, "yes": 5, "no": 6, "missing": 6, "children": [{"nodeid": 5, "depth": 3, "split": "f0", "split_condition": 1, "yes": 9, "no": 10, "missing": 10, "children": [{"nodeid": 9, "leaf": 0.0174005702}, {"nodeid": 10, "leaf": -0.0291471165}]}, {"nodeid": 6, "leaf": -0.205742747}]}, {"nodeid": 4, "depth": 2, "split": "f6", "split_condition": 0, "yes": 7, "no": 8, "missing": 8, "children": [{"nodeid": 7, "depth": 3, "split": "f0", "split_condition": 1, "yes": 11, "no": 12, "missing": 12, "children": [{"nodeid": 11, "depth": 4, "split": "f4", "split_condition": 1, "yes": 15, "no": 16, "missing": 16, "children": [{"nodeid": 15, "depth": 5, "split": "f11", "split_condition": 1, "yes": 23, "no": 24, "missing": 24, "children": [{"nodeid": 23, "leaf": -0.170826554}, {"nodeid": 24, "leaf": 0.00695190812}]}, {"nodeid": 16, "depth": 5, "split": "f14", "split_condition": 1, "yes": 25, "no": 26, "missing": 26, "children": [{"nodeid": 25, "leaf": 0.226221919}, {"nodeid": 26, "leaf": 0.00736773014}]}]}, {"nodeid": 12, "depth": 4, "split": "f10", "split_condition": 1, "yes": 17, "no": 18, "missing": 18, "children": [{"nodeid": 17, "depth": 5, "split": "f1", "split_condition": 1, "yes": 27, "no": 28, "missing": 28, "children": [{"nodeid": 27, "leaf": 0.0302340202}, {"nodeid": 28, "leaf": 0.233217686}]}, {"nodeid": 18, "depth": 5, "split": "f11", "split_condition": 1, "yes": 29, "no": 30, "missing": 30, "children": [{"nodeid": 29, "leaf": -0.115644187}, {"nodeid": 30, "leaf": -0.0221404266}]}]}]}, {"nodeid": 8, "depth": 3, "split": "f0", "split_condition": 1, "yes": 13, "no": 14, "missing": 14, "children": [{"nodeid": 13, "depth": 4, "split": "f6", "split_condition": 1, "yes": 19, "no": 20, "missing": 20, "children": [{"nodeid": 19, "depth": 5, "split": "f2", "split_condition": 1, "yes": 31, "no": 32, "missing": 32, "children": [{"nodeid": 31, "leaf": 0.0853925645}, {"nodeid": 32, "leaf": -0.155328855}]}, {"nodeid": 20, "depth": 5, "split": "f1", "split_condition": 0, "yes": 33, "no": 34, "missing": 34, "children": [{"nodeid": 33, "leaf": 0.1162479}, {"nodeid": 34, "leaf": -0.0887034088}]}]}, {"nodeid": 14, "depth": 4, "split": "f6", "split_condition": 1, "yes": 21, "no": 22, "missing": 22, "children": [{"nodeid": 21, "depth": 5, "split": "f3", "split_condition": 1, "yes": 35, "no": 36, "missing": 36, "children": [{"nodeid": 35, "leaf": -0.153094023}, {"nodeid": 36, "leaf": 0.0964983925}]}, {"nodeid": 22, "depth": 5, "split": "f13", "split_condition": 1, "yes": 37, "no": 38, "missing": 38, "children": [{"nodeid": 37, "leaf": 0.0381941944}, {"nodeid": 38, "leaf": -0.107227601}]}]}]}]}]}, {"nodeid": 2, "leaf": 0.234940127}]}, {"nodeid": 0, "depth": 0, "split": "f5", "split_condition": 1, "yes": 1, "no": 2, "missing": 2, "children": [{"nodeid": 1, "depth": 1, "split": "f12", "split_condition": 0, "yes": 3, "no": 4, "missing": 4, "children": [{"nodeid": 3, "depth": 2, "split": "f7", "split_condition": 1, "yes": 5, "no": 6, "missing": 6, "children": [{"nodeid": 5, "leaf": -0.233923718}, {"nodeid": 6, "depth": 3, "split": "f16", "split_condition": 1, "yes": 9, "no": 10, "missing": 10, "children": [{"nodeid": 9, "leaf": 0.042829819}, {"nodeid": 10, "leaf": -0.0858144462}]}]}, {"nodeid": 4, "depth": 2, "split": "f7", "split_condition": 1, "yes": 7, "no": 8, "missing": 8, "children": [{"nodeid": 7, "depth": 3, "split": "f7", "split_condition": 0, "yes": 11, "no": 12, "missing": 12, "children": [{"nodeid": 11, "depth": 4, "split": "f6", "split_condition": 0, "yes": 15, "no": 16, "missing": 16, "children": [{"nodeid": 15, "depth": 5, "split": "f0", "split_condition": 1, "yes": 23, "no": 24, "missing": 24, "children": [{"nodeid": 23, "leaf": 0.149321929}, {"nodeid": 24, "leaf": -0.0737970099}]}, {"nodeid": 16, "depth": 5, "split": "f6", "split_condition": 1, "yes": 25, "no": 26, "missing": 26, "children": [{"nodeid": 25, "leaf": 0.0545953698}, {"nodeid": 26, "leaf": -0.0316058323}]}]}, {"nodeid": 12, "depth": 4, "split": "f6", "split_condition": 1, "yes": 17, "no": 18, "missing": 18, "children": [{"nodeid": 17, "leaf": -0.307187617}, {"nodeid": 18, "depth": 5, "split": "f3", "split_condition": 1, "yes": 27, "no": 28, "missing": 28, "children": [{"nodeid": 27, "leaf": -0.154878765}, {"nodeid": 28, "leaf": 0.154508024}]}]}]}, {"nodeid": 8, "depth": 3, "split": "f12", "split_condition": 1, "yes": 13, "no": 14, "missing": 14, "children": [{"nodeid": 13, "depth": 4, "split": "f15", "split_condition": 1, "yes": 19, "no": 20, "missing": 20, "children": [{"nodeid": 19, "depth": 5, "split": "f11", "split_condition": 1, "yes": 29, "no": 30, "missing": 30, "children": [{"nodeid": 29, "leaf": -0.0281825885}, {"nodeid": 30, "leaf": 0.156269148}]}, {"nodeid": 20, "depth": 5, "split": "f16", "split_condition": 1, "yes": 31, "no": 32, "missing": 32, "children": [{"nodeid": 31, "leaf": 0.159063295}, {"nodeid": 32, "leaf": -0.0091452403}]}]}, {"nodeid": 14, "depth": 4, "split": "f0", "split_condition": 1, "yes": 21, "no": 22, "missing": 22, "children": [{"nodeid": 21, "depth": 5, "split": "f2", "split_condition": 1, "yes": 33, "no": 34, "missing": 34, "children": [{"nodeid": 33, "leaf": 0.185624659}, {"nodeid": 34, "leaf": -0.184389338}]}, {"nodeid": 22, "depth": 5, "split": "f16", "split_condition": 1, "yes": 35, "no": 36, "missing": 36, "children": [{"nodeid": 35, "leaf": 0.0382898413}, {"nodeid": 36, "leaf": 0.24626033}]}]}]}]}]}, {"nodeid": 2, "leaf": 0.220928848}]}, {"nodeid": 0, "depth": 0, "split": "f5", "split_condition": 1, "yes": 1, "no": 2, "missing": 2, "children": [{"nodeid": 1, "depth": 1, "split": "f12", "split_condition": 0, "yes": 3, "no": 4, "missing": 4, "children": [{"nodeid": 3, "depth": 2, "split": "f7", "split_condition": 1, "yes": 5, "no": 6, "missing": 6, "children": [{"nodeid": 5, "leaf": -0.220980719}, {"nodeid": 6, "depth": 3, "split": "f6", "split_condition": 1, "yes": 9, "no": 10, "missing": 10, "children": [{"nodeid": 9, "depth": 4, "split": "f6", "split_condition": 0, "yes": 15, "no": 16, "missing": 16, "children": [{"nodeid": 15, "leaf": 0.0263034105}, {"nodeid": 16, "leaf": -0.191929251}]}, {"nodeid": 10, "leaf": 0.0450423434}]}]}, {"nodeid": 4, "depth": 2, "split": "f13", "split_condition": 0, "yes": 7, "no": 8, "missing": 8, "children": [{"nodeid": 7, "depth": 3, "split": "f8", "split_condition": 1, "yes": 11, "no": 12, "missing": 12, "children": [{"nodeid": 11, "depth": 4, "split": "f11", "split_condition": 1, "yes": 17, "no": 18, "missing": 18, "children": [{"nodeid": 17, "depth": 5, "split": "f9", "split_condition": 1, "yes": 25, "no": 26, "missing": 26, "children": [{"nodeid": 25, "leaf": -0.229134843}, {"nodeid": 26, "leaf": 0.00905200467}]}, {"nodeid": 18, "depth": 5, "split": "f1", "split_condition": 0, "yes": 27, "no": 28, "missing": 28, "children": [{"nodeid": 27, "leaf": 0.0948740616}, {"nodeid": 28, "leaf": 0.337896883}]}]}, {"nodeid": 12, "depth": 4, "split": "f15", "split_condition": 1, "yes": 19, "no": 20, "missing": 20, "children": [{"nodeid": 19, "depth": 5, "split": "f11", "split_condition": 1, "yes": 29, "no": 30, "missing": 30, "children": [{"nodeid": 29, "leaf": 0.156315118}, {"nodeid": 30, "leaf": -0.261779785}]}, {"nodeid": 20, "depth": 5, "split": "f12", "split_condition": 1, "yes": 31, "no": 32, "missing": 32, "children": [{"nodeid": 31, "leaf": -0.00909602828}, {"nodeid": 32, "leaf": -0.101341657}]}]}]}, {"nodeid": 8, "depth": 3, "split": "f7", "split_condition": 1, "yes": 13, "no": 14, "missing": 14, "children": [{"nodeid": 13, "depth": 4, "split": "f7", "split_condition": 0, "yes": 21, "no": 22, "missing": 22, "children": [{"nodeid": 21, "depth": 5, "split": "f8", "split_condition": 1, "yes": 33, "no": 34, "missing": 34, "children": [{"nodeid": 33, "leaf": -0.118419327}, {"nodeid": 34, "leaf": 0.0178583451}]}, {"nodeid": 22, "depth": 5, "split": "f1", "split_condition": 0, "yes": 35, "no": 36, "missing": 36, "children": [{"nodeid": 35, "leaf": -0.28173539}, {"nodeid": 36, "leaf": 0.025263099}]}]}, {"nodeid": 14, "depth": 4, "split": "f12", "split_condition": 1, "yes": 23, "no": 24, "missing": 24, "children": [{"nodeid": 23, "depth": 5, "split": "f10", "split_condition": 1, "yes": 37, "no": 38, "missing": 38, "children": [{"nodeid": 37, "leaf": 0.145723075}, {"nodeid": 38, "leaf": 0.013402666}]}, {"nodeid": 24, "depth": 5, "split": "f4", "split_condition": 1, "yes": 39, "no": 40, "missing": 40, "children": [{"nodeid": 39, "leaf": -0.065841496}, {"nodeid": 40, "leaf": 0.252316862}]}]}]}]}]}, {"nodeid": 2, "leaf": 0.206607014}]}, {"nodeid": 0, "depth": 0, "split": "f5", "split_condition": 1, "yes": 1, "no": 2, "missing": 2, "children": [{"nodeid": 1, "depth": 1, "split": "f12", "split_condition": 0, "yes": 3, "no": 4, "missing": 4, "children": [{"nodeid": 3, "depth": 2, "split": "f7", "split_condition": 1, "yes": 5, "no": 6, "missing": 6, "children": [{"nodeid": 5, "leaf": -0.20739831}, {"nodeid": 6, "depth": 3, "split": "f16", "split_condition": 1, "yes": 9, "no": 10, "missing": 10, "children": [{"nodeid": 9, "leaf": 0.0410800353}, {"nodeid": 10, "leaf": -0.0690380484}]}]}, {"nodeid": 4, "depth": 2, "split": "f14", "split_condition": 0, "yes": 7, "no": 8, "missing": 8, "children": [{"nodeid": 7, "depth": 3, "split": "f1", "split_condition": 1, "yes": 11, "no": 12, "missing": 12, "children": [{"nodeid": 11, "depth": 4, "split": "f2", "split_condition": 1, "yes": 15, "no": 16, "missing": 16, "children": [{"nodeid": 15, "depth": 5, "split": "f4", "split_condition": 1, "yes": 23, "no": 24, "missing": 24, "children": [{"nodeid": 23, "leaf": 0.247618005}, {"nodeid": 24, "leaf": -0.0713170916}]}, {"nodeid": 16, "depth": 5, "split": "f4", "split_condition": 1, "yes": 25, "no": 26, "missing": 26, "children": [{"nodeid": 25, "leaf": -0.310172558}, {"nodeid": 26, "leaf": -0.0095378533}]}]}, {"nodeid": 12, "depth": 4, "split": "f11", "split_condition": 1, "yes": 17, "no": 18, "missing": 18, "children": [{"nodeid": 17, "leaf": -0.212172791}, {"nodeid": 18, "depth": 5, "split": "f15", "split_condition": 1, "yes": 27, "no": 28, "missing": 28, "children": [{"nodeid": 27, "leaf": 0.320722818}, {"nodeid": 28, "leaf": 0.0483886488}]}]}]}, {"nodeid": 8, "depth": 3, "split": "f1", "split_condition": 1, "yes": 13, "no": 14, "missing": 14, "children": [{"nodeid": 13, "depth": 4, "split": "f7", "split_condition": 1, "yes": 19, "no": 20, "missing": 20, "children": [{"nodeid": 19, "depth": 5, "split": "f13", "split_condition": 1, "yes": 29, "no": 30, "missing": 30, "children": [{"nodeid": 29, "leaf": -0.0118163144}, {"nodeid": 30, "leaf": 0.229918003}]}, {"nodeid": 20, "leaf": 0.262813032}]}, {"nodeid": 14, "depth": 4, "split": "f15", "split_condition": 1, "yes": 21, "no": 22, "missing": 22, "children": [{"nodeid": 21, "leaf": 0.197668493}, {"nodeid": 22, "depth": 5, "split": "f14", "split_condition": 1, "yes": 31, "no": 32, "missing": 32, "children": [{"nodeid": 31, "leaf": 0.0953428596}, {"nodeid": 32, "leaf": -0.0759025216}]}]}]}]}]}, {"nodeid": 2, "leaf": 0.192321852}]}, {"nodeid": 0, "depth": 0, "split": "f5", "split_condition": 1, "yes": 1, "no": 2, "missing": 2, "children": [{"nodeid": 1, "depth": 1, "split": "f0", "split_condition": 1, "yes": 3, "no": 4, "missing": 4, "children": [{"nodeid": 3, "depth": 2, "split": "f6", "split_condition": 0, "yes": 5, "no": 6, "missing": 6, "children": [{"nodeid": 5, "depth": 3, "split": "f4", "split_condition": 1, "yes": 9, "no": 10, "missing": 10, "children": [{"nodeid": 9, "depth": 4, "split": "f13", "split_condition": 1, "yes": 17, "no": 18, "missing": 18, "children": [{"nodeid": 17, "depth": 5, "split": "f1", "split_condition": 0, "yes": 33, "no": 34, "missing": 34, "children": [{"nodeid": 33, "leaf": 0.0565506071}, {"nodeid": 34, "leaf": -0.110241219}]}, {"nodeid": 18, "leaf": -0.18629545}]}, {"nodeid": 10, "depth": 4, "split": "f13", "split_condition": 0, "yes": 19, "no": 20, "missing": 20, "children": [{"nodeid": 19, "depth": 5, "split": "f12", "split_condition": 1, "yes": 35, "no": 36, "missing": 36, "children": [{"nodeid": 35, "leaf": 0.0601591244}, {"nodeid": 36, "leaf": -0.0464849584}]}, {"nodeid": 20, "depth": 5, "split": "f1", "split_condition": 1, "yes": 37, "no": 38, "missing": 38, "children": [{"nodeid": 37, "leaf": 0.202097908}, {"nodeid": 38, "leaf": 0.0574673712}]}]}]}, {"nodeid": 6, "depth": 3, "split": "f6", "split_condition": 1, "yes": 11, "no": 12, "missing": 12, "children": [{"nodeid": 11, "depth": 4, "split": "f14", "split_condition": 0, "yes": 21, "no": 22, "missing": 22, "children": [{"nodeid": 21, "depth": 5, "split": "f16", "split_condition": 1, "yes": 39, "no": 40, "missing": 40, "children": [{"nodeid": 39, "leaf": 0.145553544}, {"nodeid": 40, "leaf": -0.150932908}]}, {"nodeid": 22, "depth": 5, "split": "f8", "split_condition": 1, "yes": 41, "no": 42, "missing": 42, "children": [{"nodeid": 41, "leaf": -0.137904033}, {"nodeid": 42, "leaf": 0.144043475}]}]}, {"nodeid": 12, "depth": 4, "split": "f1", "split_condition": 0, "yes": 23, "no": 24, "missing": 24, "children": [{"nodeid": 23, "depth": 5, "split": "f16", "split_condition": 1, "yes": 43, "no": 44, "missing": 44, "children": [{"nodeid": 43, "leaf": -0.0990044549}, {"nodeid": 44, "leaf": 0.102554612}]}, {"nodeid": 24, "depth": 5, "split": "f8", "split_condition": 1, "yes": 45, "no": 46, "missing": 46, "children": [{"nodeid": 45, "leaf": 0.220359221}, {"nodeid": 46, "leaf": -0.171560153}]}]}]}]}, {"nodeid": 4, "depth": 2, "split": "f6", "split_condition": 0, "yes": 7, "no": 8, "missing": 8, "children": [{"nodeid": 7, "depth": 3, "split": "f8", "split_condition": 1, "yes": 13, "no": 14, "missing": 14, "children": [{"nodeid": 13, "depth": 4, "split": "f15", "split_condition": 1, "yes": 25, "no": 26, "missing": 26, "children": [{"nodeid": 25, "depth": 5, "split": "f11", "split_condition": 1, "yes": 47, "no": 48, "missing": 48, "children": [{"nodeid": 47, "leaf": -0.180949509}, {"nodeid": 48, "leaf": 0.0824630857}]}, {"nodeid": 26, "leaf": -0.321537733}]}, {"nodeid": 14, "depth": 4, "split": "f10", "split_condition": 1, "yes": 27, "no": 28, "missing": 28, "children": [{"nodeid": 27, "depth": 5, "split": "f1", "split_condition": 0, "yes": 49, "no": 50, "missing": 50, "children": [{"nodeid": 49, "leaf": 0.226681054}, {"nodeid": 50, "leaf": -0.0240504947}]}, {"nodeid": 28, "depth": 5, "split": "f7", "split_condition": 1, "yes": 51, "no": 52, "missing": 52, "children": [{"nodeid": 51, "leaf": -0.0760595053}, {"nodeid": 52, "leaf": 0.0128395744}]}]}]}, {"nodeid": 8, "depth": 3, "split": "f13", "split_condition": 0, "yes": 15, "no": 16, "missing": 16, "children": [{"nodeid": 15, "depth": 4, "split": "f11", "split_condition": 1, "yes": 29, "no": 30, "missing": 30, "children": [{"nodeid": 29, "depth": 5, "split": "f7", "split_condition": 1, "yes": 53, "no": 54, "missing": 54, "children": [{"nodeid": 53, "leaf": -0.0525414497}, {"nodeid": 54, "leaf": 0.151902109}]}, {"nodeid": 30, "depth": 5, "split": "f8", "split_condition": 1, "yes": 55, "no": 56, "missing": 56, "children": [{"nodeid": 55, "leaf": 0.162937135}, {"nodeid": 56, "leaf": -0.0907717422}]}]}, {"nodeid": 16, "depth": 4, "split": "f13", "split_condition": 1, "yes": 31, "no": 32, "missing": 32, "children": [{"nodeid": 31, "depth": 5, "split": "f7", "split_condition": 1, "yes": 57, "no": 58, "missing": 58, "children": [{"nodeid": 57, "leaf": 0.0557902865}, {"nodeid": 58, "leaf": 0.164808989}]}, {"nodeid": 32, "depth": 5, "split": "f6", "split_condition": 1, "yes": 59, "no": 60, "missing": 60, "children": [{"nodeid": 59, "leaf": 0.063870497}, {"nodeid": 60, "leaf": -0.0907382146}]}]}]}]}]}, {"nodeid": 2, "leaf": 0.178404778}]}, {"nodeid": 0, "depth": 0, "split": "f5", "split_condition": 1, "yes": 1, "no": 2, "missing": 2, "children": [{"nodeid": 1, "depth": 1, "split": "f12", "split_condition": 0, "yes": 3, "no": 4, "missing": 4, "children": [{"nodeid": 3, "depth": 2, "split": "f7", "split_condition": 1, "yes": 5, "no": 6, "missing": 6, "children": [{"nodeid": 5, "leaf": -0.192537844}, {"nodeid": 6, "depth": 3, "split": "f6", "split_condition": 1, "yes": 9, "no": 10, "missing": 10, "children": [{"nodeid": 9, "leaf": -0.068676427}, {"nodeid": 10, "leaf": 0.0401463732}]}]}, {"nodeid": 4, "depth": 2, "split": "f14", "split_condition": 0, "yes": 7, "no": 8, "missing": 8, "children": [{"nodeid": 7, "depth": 3, "split": "f1", "split_condition": 1, "yes": 11, "no": 12, "missing": 12, "children": [{"nodeid": 11, "depth": 4, "split": "f2", "split_condition": 1, "yes": 15, "no": 16, "missing": 16, "children": [{"nodeid": 15, "depth": 5, "split": "f15", "split_condition": 1, "yes": 23, "no": 24, "missing": 24, "children": [{"nodeid": 23, "leaf": -0.0987740383}, {"nodeid": 24, "leaf": 0.209212184}]}, {"nodeid": 16, "depth": 5, "split": "f4", "split_condition": 1, "yes": 25, "no": 26, "missing": 26, "children": [{"nodeid": 25, "leaf": -0.27064997}, {"nodeid": 26, "leaf": -0.00696578249}]}]}, {"nodeid": 12, "depth": 4, "split": "f13", "split_condition": 1, "yes": 17, "no": 18, "missing": 18, "children": [{"nodeid": 17, "depth": 5, "split": "f8", "split_condition": 1, "yes": 27, "no": 28, "missing": 28, "children": [{"nodeid": 27, "leaf": 0.256506592}, {"nodeid": 28, "leaf": 0.0665251911}]}, {"nodeid": 18, "depth": 5, "split": "f6", "split_condition": 1, "yes": 29, "no": 30, "missing": 30, "children": [{"nodeid": 29, "leaf": -0.300803661}, {"nodeid": 30, "leaf": 0.0739958137}]}]}]}, {"nodeid": 8, "depth": 3, "split": "f6", "split_condition": 0, "yes": 13, "no": 14, "missing": 14, "children": [{"nodeid": 13, "depth": 4, "split": "f3", "split_condition": 1, "yes": 19, "no": 20, "missing": 20, "children": [{"nodeid": 19, "depth": 5, "split": "f7", "split_condition": 1, "yes": 31, "no": 32, "missing": 32, "children": [{"nodeid": 31, "leaf": 0.0259985905}, {"nodeid": 32, "leaf": 0.162185207}]}, {"nodeid": 20, "depth": 5, "split": "f14", "split_condition": 1, "yes": 33, "no": 34, "missing": 34, "children": [{"nodeid": 33, "leaf": 0.0541411899}, {"nodeid": 34, "leaf": -0.133709386}]}]}, {"nodeid": 14, "depth": 4, "split": "f4", "split_condition": 1, "yes": 21, "no": 22, "missing": 22, "children": [{"nodeid": 21, "depth": 5, "split": "f13", "split_condition": 0, "yes": 35, "no": 36, "missing": 36, "children": [{"nodeid": 35, "leaf": 0.0571362004}, {"nodeid": 36, "leaf": -0.182702243}]}, {"nodeid": 22, "depth": 5, "split": "f7", "split_condition": 1, "yes": 37, "no": 38, "missing": 38, "children": [{"nodeid": 37, "leaf": 0.0188540574}, {"nodeid": 38, "leaf": 0.19674392}]}]}]}]}]}, {"nodeid": 2, "leaf": 0.165127397}]}, {"nodeid": 0, "depth": 0, "split": "f5", "split_condition": 1, "yes": 1, "no": 2, "missing": 2, "children": [{"nodeid": 1, "depth": 1, "split": "f12", "split_condition": 0, "yes": 3, "no": 4, "missing": 4, "children": [{"nodeid": 3, "depth": 2, "split": "f7", "split_condition": 1, "yes": 5, "no": 6, "missing": 6, "children": [{"nodeid": 5, "leaf": -0.178904295}, {"nodeid": 6, "depth": 3, "split": "f6", "split_condition": 0, "yes": 9, "no": 10, "missing": 10, "children": [{"nodeid": 9, "leaf": 0.0411463976}, {"nodeid": 10, "depth": 4, "split": "f8", "split_condition": 1, "yes": 15, "no": 16, "missing": 16, "children": [{"nodeid": 15, "leaf": -0.0937617347}, {"nodeid": 16, "leaf": -0.00125289999}]}]}]}, {"nodeid": 4, "depth": 2, "split": "f14", "split_condition": 0, "yes": 7, "no": 8, "missing": 8, "children": [{"nodeid": 7, "depth": 3, "split": "f3", "split_condition": 1, "yes": 11, "no": 12, "missing": 12, "children": [{"nodeid": 11, "depth": 4, "split": "f11", "split_condition": 1, "yes": 17, "no": 18, "missing": 18, "children": [{"nodeid": 17, "depth": 5, "split": "f7", "split_condition": 0, "yes": 25, "no": 26, "missing": 26, "children": [{"nodeid": 25, "leaf": 0.179326817}, {"nodeid": 26, "leaf": -0.355514616}]}, {"nodeid": 18, "depth": 5, "split": "f6", "split_condition": 1, "yes": 27, "no": 28, "missing": 28, "children": [{"nodeid": 27, "leaf": -0.0304292049}, {"nodeid": 28, "leaf": 0.137333497}]}]}, {"nodeid": 12, "depth": 4, "split": "f13", "split_condition": 1, "yes": 19, "no": 20, "missing": 20, "children": [{"nodeid": 19, "depth": 5, "split": "f11", "split_condition": 1, "yes": 29, "no": 30, "missing": 30, "children": [{"nodeid": 29, "leaf": 0.022369314}, {"nodeid": 30, "leaf": -0.0184542835}]}, {"nodeid": 20, "depth": 5, "split": "f6", "split_condition": 1, "yes": 31, "no": 32, "missing": 32, "children": [{"nodeid": 31, "leaf": 0.0887256637}, {"nodeid": 32, "leaf": -0.0482438393}]}]}]}, {"nodeid": 8, "depth": 3, "split": "f12", "split_condition": 1, "yes": 13, "no": 14, "missing": 14, "children": [{"nodeid": 13, "depth": 4, "split": "f6", "split_condition": 0, "yes": 21, "no": 22, "missing": 22, "children": [{"nodeid": 21, "depth": 5, "split": "f8", "split_condition": 1, "yes": 33, "no": 34, "missing": 34, "children": [{"nodeid": 33, "leaf": -0.20689036}, {"nodeid": 34, "leaf": -0.0129825659}]}, {"nodeid": 22, "depth": 5, "split": "f2", "split_condition": 1, "yes": 35, "no": 36, "missing": 36, "children": [{"nodeid": 35, "leaf": -0.0285945646}, {"nodeid": 36, "leaf": 0.0639052764}]}]}, {"nodeid": 14, "depth": 4, "split": "f7", "split_condition": 1, "yes": 23, "no": 24, "missing": 24, "children": [{"nodeid": 23, "leaf": 0.069441177}, {"nodeid": 24, "leaf": 0.20048973}]}]}]}]}, {"nodeid": 2, "leaf": 0.15267992}]}, {"nodeid": 0, "depth": 0, "split": "f7", "split_condition": 1, "yes": 1, "no": 2, "missing": 2, "children": [{"nodeid": 1, "depth": 1, "split": "f7", "split_condition": 0, "yes": 3, "no": 4, "missing": 4, "children": [{"nodeid": 3, "depth": 2, "split": "f8", "split_condition": 1, "yes": 7, "no": 8, "missing": 8, "children": [{"nodeid": 7, "depth": 3, "split": "f13", "split_condition": 1, "yes": 15, "no": 16, "missing": 16, "children": [{"nodeid": 15, "depth": 4, "split": "f1", "split_condition": 1, "yes": 29, "no": 30, "missing": 30, "children": [{"nodeid": 29, "depth": 5, "split": "f13", "split_condition": 0, "yes": 47, "no": 48, "missing": 48, "children": [{"nodeid": 47, "leaf": -0.116941832}, {"nodeid": 48, "leaf": -0.335071743}]}, {"nodeid": 30, "leaf": 0.191825569}]}, {"nodeid": 16, "leaf": 0.225219265}]}, {"nodeid": 8, "depth": 3, "split": "f1", "split_condition": 0, "yes": 17, "no": 18, "missing": 18, "children": [{"nodeid": 17, "depth": 4, "split": "f15", "split_condition": 1, "yes": 31, "no": 32, "missing": 32, "children": [{"nodeid": 31, "leaf": -0.23942031}, {"nodeid": 32, "depth": 5, "split": "f3", "split_condition": 1, "yes": 49, "no": 50, "missing": 50, "children": [{"nodeid": 49, "leaf": 0.238724425}, {"nodeid": 50, "leaf": 0.0276556686}]}]}, {"nodeid": 18, "depth": 4, "split": "f13", "split_condition": 0, "yes": 33, "no": 34, "missing": 34, "children": [{"nodeid": 33, "leaf": -0.27366969}, {"nodeid": 34, "depth": 5, "split": "f0", "split_condition": 1, "yes": 51, "no": 52, "missing": 52, "children": [{"nodeid": 51, "leaf": -0.215883687}, {"nodeid": 52, "leaf": 0.00907071028}]}]}]}]}, {"nodeid": 4, "depth": 2, "split": "f6", "split_condition": 1, "yes": 9, "no": 10, "missing": 10, "children": [{"nodeid": 9, "leaf": -0.27950567}, {"nodeid": 10, "depth": 3, "split": "f0", "split_condition": 1, "yes": 19, "no": 20, "missing": 20, "children": [{"nodeid": 19, "leaf": -0.199199244}, {"nodeid": 20, "depth": 4, "split": "f3", "split_condition": 1, "yes": 35, "no": 36, "missing": 36, "children": [{"nodeid": 35, "leaf": -0.123946831}, {"nodeid": 36, "leaf": 0.293900013}]}]}]}]}, {"nodeid": 2, "depth": 1, "split": "f12", "split_condition": 1, "yes": 5, "no": 6, "missing": 6, "children": [{"nodeid": 5, "depth": 2, "split": "f15", "split_condition": 1, "yes": 11, "no": 12, "missing": 12, "children": [{"nodeid": 11, "depth": 3, "split": "f1", "split_condition": 0, "yes": 21, "no": 22, "missing": 22, "children": [{"nodeid": 21, "depth": 4, "split": "f6", "split_condition": 1, "yes": 37, "no": 38, "missing": 38, "children": [{"nodeid": 37, "depth": 5, "split": "f13", "split_condition": 0, "yes": 53, "no": 54, "missing": 54, "children": [{"nodeid": 53, "leaf": -0.00262931036}, {"nodeid": 54, "leaf": 0.165296733}]}, {"nodeid": 38, "depth": 5, "split": "f0", "split_condition": 1, "yes": 55, "no": 56, "missing": 56, "children": [{"nodeid": 55, "leaf": 0.134948656}, {"nodeid": 56, "leaf": -0.196478218}]}]}, {"nodeid": 22, "depth": 4, "split": "f3", "split_condition": 1, "yes": 39, "no": 40, "missing": 40, "children": [{"nodeid": 39, "leaf": 0.0565313362}, {"nodeid": 40, "leaf": 0.267410398}]}]}, {"nodeid": 12, "depth": 3, "split": "f16", "split_condition": 1, "yes": 23, "no": 24, "missing": 24, "children": [{"nodeid": 23, "depth": 4, "split": "f0", "split_condition": 1, "yes": 41, "no": 42, "missing": 42, "children": [{"nodeid": 41, "leaf": 0.165987924}, {"nodeid": 42, "leaf": 0.00717173656}]}, {"nodeid": 24, "depth": 4, "split": "f6", "split_condition": 1, "yes": 43, "no": 44, "missing": 44, "children": [{"nodeid": 43, "depth": 5, "split": "f8", "split_condition": 1, "yes": 57, "no": 58, "missing": 58, "children": [{"nodeid": 57, "leaf": -0.179518446}, {"nodeid": 58, "leaf": -0.00931837875}]}, {"nodeid": 44, "depth": 5, "split": "f8", "split_condition": 1, "yes": 59, "no": 60, "missing": 60, "children": [{"nodeid": 59, "leaf": 0.243985295}, {"nodeid": 60, "leaf": -0.00570622832}]}]}]}]}, {"nodeid": 6, "depth": 2, "split": "f0", "split_condition": 1, "yes": 13, "no": 14, "missing": 14, "children": [{"nodeid": 13, "depth": 3, "split": "f2", "split_condition": 1, "yes": 25, "no": 26, "missing": 26, "children": [{"nodeid": 25, "leaf": 0.173000783}, {"nodeid": 26, "depth": 4, "split": "f11", "split_condition": 1, "yes": 45, "no": 46, "missing": 46, "children": [{"nodeid": 45, "leaf": -0.181445047}, {"nodeid": 46, "leaf": 0.0516489111}]}]}, {"nodeid": 14, "depth": 3, "split": "f3", "split_condition": 1, "yes": 27, "no": 28, "missing": 28, "children": [{"nodeid": 27, "leaf": 0.0390525945}, {"nodeid": 28, "leaf": 0.227858514}]}]}]}]}, {"nodeid": 0, "depth": 0, "split": "f7", "split_condition": 1, "yes": 1, "no": 2, "missing": 2, "children": [{"nodeid": 1, "depth": 1, "split": "f7", "split_condition": 0, "yes": 3, "no": 4, "missing": 4, "children": [{"nodeid": 3, "depth": 2, "split": "f8", "split_condition": 1, "yes": 7, "no": 8, "missing": 8, "children": [{"nodeid": 7, "depth": 3, "split": "f13", "split_condition": 1, "yes": 15, "no": 16, "missing": 16, "children": [{"nodeid": 15, "depth": 4, "split": "f1", "split_condition": 1, "yes": 29, "no": 30, "missing": 30, "children": [{"nodeid": 29, "depth": 5, "split": "f13", "split_condition": 0, "yes": 45, "no": 46, "missing": 46, "children": [{"nodeid": 45, "leaf": -0.0939741954}, {"nodeid": 46, "leaf": -0.302680194}]}, {"nodeid": 30, "leaf": 0.159138471}]}, {"nodeid": 16, "leaf": 0.190163761}]}, {"nodeid": 8, "depth": 3, "split": "f15", "split_condition": 1, "yes": 17, "no": 18, "missing": 18, "children": [{"nodeid": 17, "leaf": -0.238004237}, {"nodeid": 18, "depth": 4, "split": "f1", "split_condition": 0, "yes": 31, "no": 32, "missing": 32, "children": [{"nodeid": 31, "depth": 5, "split": "f10", "split_condition": 1, "yes": 47, "no": 48, "missing": 48, "children": [{"nodeid": 47, "leaf": 0.177167639}, {"nodeid": 48, "leaf": 0.0145366546}]}, {"nodeid": 32, "depth": 5, "split": "f11", "split_condition": 1, "yes": 49, "no": 50, "missing": 50, "children": [{"nodeid": 49, "leaf": -0.256855339}, {"nodeid": 50, "leaf": -0.0351779573}]}]}]}]}, {"nodeid": 4, "depth": 2, "split": "f6", "split_condition": 1, "yes": 9, "no": 10, "missing": 10, "children": [{"nodeid": 9, "leaf": -0.262973338}, {"nodeid": 10, "depth": 3, "split": "f11", "split_condition": 1, "yes": 19, "no": 20, "missing": 20, "children": [{"nodeid": 19, "leaf": -0.198423535}, {"nodeid": 20, "depth": 4, "split": "f3", "split_condition": 1, "yes": 33, "no": 34, "missing": 34, "children": [{"nodeid": 33, "leaf": -0.107153676}, {"nodeid": 34, "leaf": 0.226684377}]}]}]}]}, {"nodeid": 2, "depth": 1, "split": "f12", "split_condition": 1, "yes": 5, "no": 6, "missing": 6, "children": [{"nodeid": 5, "depth": 2, "split": "f15", "split_condition": 1, "yes": 11, "no": 12, "missing": 12, "children": [{"nodeid": 11, "depth": 3, "split": "f1", "split_condition": 0, "yes": 21, "no": 22, "missing": 22, "children": [{"nodeid": 21, "depth": 4, "split": "f11", "split_condition": 1, "yes": 35, "no": 36, "missing": 36, "children": [{"nodeid": 35, "depth": 5, "split": "f16", "split_condition": 1, "yes": 51, "no": 52, "missing": 52, "children": [{"nodeid": 51, "leaf": -0.390940785}, {"nodeid": 52, "leaf": 0.17875281}]}, {"nodeid": 36, "depth": 5, "split": "f8", "split_condition": 1, "yes": 53, "no": 54, "missing": 54, "children": [{"nodeid": 53, "leaf": 0.156632051}, {"nodeid": 54, "leaf": -0.0745258853}]}]}, {"nodeid": 22, "depth": 4, "split": "f3", "split_condition": 1, "yes": 37, "no": 38, "missing": 38, "children": [{"nodeid": 37, "leaf": 0.0488978177}, {"nodeid": 38, "leaf": 0.244924337}]}]}, {"nodeid": 12, "depth": 3, "split": "f16", "split_condition": 1, "yes": 23, "no": 24, "missing": 24, "children": [{"nodeid": 23, "depth": 4, "split": "f13", "split_condition": 0, "yes": 39, "no": 40, "missing": 40, "children": [{"nodeid": 39, "leaf": 0.00301464205}, {"nodeid": 40, "leaf": 0.148794785}]}, {"nodeid": 24, "depth": 4, "split": "f14", "split_condition": 0, "yes": 41, "no": 42, "missing": 42, "children": [{"nodeid": 41, "depth": 5, "split": "f2", "split_condition": 1, "yes": 55, "no": 56, "missing": 56, "children": [{"nodeid": 55, "leaf": 0.0830577165}, {"nodeid": 56, "leaf": -0.0146408016}]}, {"nodeid": 42, "depth": 5, "split": "f1", "split_condition": 1, "yes": 57, "no": 58, "missing": 58, "children": [{"nodeid": 57, "leaf": 0.227776363}, {"nodeid": 58, "leaf": -0.0280920416}]}]}]}]}, {"nodeid": 6, "depth": 2, "split": "f3", "split_condition": 1, "yes": 13, "no": 14, "missing": 14, "children": [{"nodeid": 13, "depth": 3, "split": "f13", "split_condition": 0, "yes": 25, "no": 26, "missing": 26, "children": [{"nodeid": 25, "leaf": -0.189354867}, {"nodeid": 26, "leaf": 0.0989886448}]}, {"nodeid": 14, "depth": 3, "split": "f11", "split_condition": 1, "yes": 27, "no": 28, "missing": 28, "children": [{"nodeid": 27, "depth": 4, "split": "f0", "split_condition": 1, "yes": 43, "no": 44, "missing": 44, "children": [{"nodeid": 43, "leaf": -0.0700268447}, {"nodeid": 44, "leaf": 0.0919333696}]}, {"nodeid": 28, "leaf": 0.257677943}]}]}]}]}, {"nodeid": 0, "depth": 0, "split": "f12", "split_condition": 0, "yes": 1, "no": 2, "missing": 2, "children": [{"nodeid": 1, "depth": 1, "split": "f6", "split_condition": 1, "yes": 3, "no": 4, "missing": 4, "children": [{"nodeid": 3, "depth": 2, "split": "f6", "split_condition": 0, "yes": 7, "no": 8, "missing": 8, "children": [{"nodeid": 7, "leaf": -0.0181072243}, {"nodeid": 8, "leaf": -0.21502094}]}, {"nodeid": 4, "leaf": 0.0227528531}]}, {"nodeid": 2, "depth": 1, "split": "f0", "split_condition": 1, "yes": 5, "no": 6, "missing": 6, "children": [{"nodeid": 5, "depth": 2, "split": "f6", "split_condition": 0, "yes": 9, "no": 10, "missing": 10, "children": [{"nodeid": 9, "depth": 3, "split": "f4", "split_condition": 1, "yes": 13, "no": 14, "missing": 14, "children": [{"nodeid": 13, "depth": 4, "split": "f11", "split_condition": 1, "yes": 21, "no": 22, "missing": 22, "children": [{"nodeid": 21, "leaf": -0.127884209}, {"nodeid": 22, "leaf": -0.0144016091}]}, {"nodeid": 14, "depth": 4, "split": "f13", "split_condition": 0, "yes": 23, "no": 24, "missing": 24, "children": [{"nodeid": 23, "depth": 5, "split": "f12", "split_condition": 1, "yes": 37, "no": 38, "missing": 38, "children": [{"nodeid": 37, "leaf": 0.0610974506}, {"nodeid": 38, "leaf": -0.020008482}]}, {"nodeid": 24, "depth": 5, "split": "f7", "split_condition": 1, "yes": 39, "no": 40, "missing": 40, "children": [{"nodeid": 39, "leaf": 0.0940467119}, {"nodeid": 40, "leaf": 0.202291712}]}]}]}, {"nodeid": 10, "depth": 3, "split": "f6", "split_condition": 1, "yes": 15, "no": 16, "missing": 16, "children": [{"nodeid": 15, "depth": 4, "split": "f11", "split_condition": 1, "yes": 25, "no": 26, "missing": 26, "children": [{"nodeid": 25, "depth": 5, "split": "f7", "split_condition": 0, "yes": 41, "no": 42, "missing": 42, "children": [{"nodeid": 41, "leaf": -0.0177864879}, {"nodeid": 42, "leaf": -0.269487262}]}, {"nodeid": 26, "depth": 5, "split": "f16", "split_condition": 1, "yes": 43, "no": 44, "missing": 44, "children": [{"nodeid": 43, "leaf": 0.217345461}, {"nodeid": 44, "leaf": -0.0475259162}]}]}, {"nodeid": 16, "depth": 4, "split": "f1", "split_condition": 0, "yes": 27, "no": 28, "missing": 28, "children": [{"nodeid": 27, "depth": 5, "split": "f16", "split_condition": 1, "yes": 45, "no": 46, "missing": 46, "children": [{"nodeid": 45, "leaf": -0.194822118}, {"nodeid": 46, "leaf": 0.0714046061}]}, {"nodeid": 28, "depth": 5, "split": "f8", "split_condition": 1, "yes": 47, "no": 48, "missing": 48, "children": [{"nodeid": 47, "leaf": 0.131777108}, {"nodeid": 48, "leaf": -0.11962644}]}]}]}]}, {"nodeid": 6, "depth": 2, "split": "f6", "split_condition": 0, "yes": 11, "no": 12, "missing": 12, "children": [{"nodeid": 11, "depth": 3, "split": "f10", "split_condition": 1, "yes": 17, "no": 18, "missing": 18, "children": [{"nodeid": 17, "depth": 4, "split": "f1", "split_condition": 1, "yes": 29, "no": 30, "missing": 30, "children": [{"nodeid": 29, "depth": 5, "split": "f11", "split_condition": 1, "yes": 49, "no": 50, "missing": 50, "children": [{"nodeid": 49, "leaf": 0.109780878}, {"nodeid": 50, "leaf": -0.0906057283}]}, {"nodeid": 30, "leaf": 0.217368752}]}, {"nodeid": 18, "depth": 4, "split": "f11", "split_condition": 1, "yes": 31, "no": 32, "missing": 32, "children": [{"nodeid": 31, "depth": 5, "split": "f13", "split_condition": 0, "yes": 51, "no": 52, "missing": 52, "children": [{"nodeid": 51, "leaf": -0.124208465}, {"nodeid": 52, "leaf": 0.0106326314}]}, {"nodeid": 32, "depth": 5, "split": "f7", "split_condition": 1, "yes": 53, "no": 54, "missing": 54, "children": [{"nodeid": 53, "leaf": -0.072192885}, {"nodeid": 54, "leaf": 0.0469222628}]}]}]}, {"nodeid": 12, "depth": 3, "split": "f6", "split_condition": 1, "yes": 19, "no": 20, "missing": 20, "children": [{"nodeid": 19, "depth": 4, "split": "f3", "split_condition": 1, "yes": 33, "no": 34, "missing": 34, "children": [{"nodeid": 33, "depth": 5, "split": "f8", "split_condition": 1, "yes": 55, "no": 56, "missing": 56, "children": [{"nodeid": 55, "leaf": -0.00363121158}, {"nodeid": 56, "leaf": -0.202788264}]}, {"nodeid": 34, "depth": 5, "split": "f8", "split_condition": 1, "yes": 57, "no": 58, "missing": 58, "children": [{"nodeid": 57, "leaf": 0.227127552}, {"nodeid": 58, "leaf": 0.0481396876}]}]}, {"nodeid": 20, "depth": 4, "split": "f12", "split_condition": 1, "yes": 35, "no": 36, "missing": 36, "children": [{"nodeid": 35, "depth": 5, "split": "f1", "split_condition": 0, "yes": 59, "no": 60, "missing": 60, "children": [{"nodeid": 59, "leaf": -0.0299094375}, {"nodeid": 60, "leaf": 0.095755592}]}, {"nodeid": 36, "depth": 5, "split": "f7", "split_condition": 1, "yes": 61, "no": 62, "missing": 62, "children": [{"nodeid": 61, "leaf": 0.0684276223}, {"nodeid": 62, "leaf": 0.216212735}]}]}]}]}]}]}, {"nodeid": 0, "depth": 0, "split": "f12", "split_condition": 0, "yes": 1, "no": 2, "missing": 2, "children": [{"nodeid": 1, "depth": 1, "split": "f11", "split_condition": 1, "yes": 3, "no": 4, "missing": 4, "children": [{"nodeid": 3, "leaf": -0.161486313}, {"nodeid": 4, "depth": 2, "split": "f3", "split_condition": 1, "yes": 7, "no": 8, "missing": 8, "children": [{"nodeid": 7, "leaf": -0.0938857421}, {"nodeid": 8, "depth": 3, "split": "f6", "split_condition": 0, "yes": 13, "no": 14, "missing": 14, "children": [{"nodeid": 13, "leaf": 0.090308845}, {"nodeid": 14, "leaf": -0.0361162871}]}]}]}, {"nodeid": 2, "depth": 1, "split": "f7", "split_condition": 1, "yes": 5, "no": 6, "missing": 6, "children": [{"nodeid": 5, "depth": 2, "split": "f7", "split_condition": 0, "yes": 9, "no": 10, "missing": 10, "children": [{"nodeid": 9, "depth": 3, "split": "f4", "split_condition": 1, "yes": 15, "no": 16, "missing": 16, "children": [{"nodeid": 15, "depth": 4, "split": "f13", "split_condition": 0, "yes": 23, "no": 24, "missing": 24, "children": [{"nodeid": 23, "leaf": -0.226336375}, {"nodeid": 24, "leaf": 0.00228381087}]}, {"nodeid": 16, "depth": 4, "split": "f6", "split_condition": 1, "yes": 25, "no": 26, "missing": 26, "children": [{"nodeid": 25, "depth": 5, "split": "f12", "split_condition": 1, "yes": 35, "no": 36, "missing": 36, "children": [{"nodeid": 35, "leaf": 0.0320462845}, {"nodeid": 36, "leaf": -0.0731066465}]}, {"nodeid": 26, "depth": 5, 